FANN_FLO_2.1
num_layers=3
learning_rate=0.700000
connection_rate=1.000000
network_type=0
learning_momentum=0.400000
training_algorithm=0
train_error_function=1
train_stop_function=0
cascade_output_change_fraction=0.010000
quickprop_decay=-0.000100
quickprop_mu=1.750000
rprop_increase_factor=1.200000
rprop_decrease_factor=0.500000
rprop_delta_min=0.000000
rprop_delta_max=50.000000
rprop_delta_zero=0.100000
cascade_output_stagnation_epochs=12
cascade_candidate_change_fraction=0.010000
cascade_candidate_stagnation_epochs=12
cascade_max_out_epochs=150
cascade_min_out_epochs=50
cascade_max_cand_epochs=150
cascade_min_cand_epochs=50
cascade_num_candidate_groups=2
bit_fail_limit=3.49999999999999977796e-01
cascade_candidate_limit=1.00000000000000000000e+03
cascade_weight_multiplier=4.00000000000000022204e-01
cascade_activation_functions_count=10
cascade_activation_functions=3 5 7 8 10 11 14 15 16 17 
cascade_activation_steepnesses_count=4
cascade_activation_steepnesses=2.50000000000000000000e-01 5.00000000000000000000e-01 7.50000000000000000000e-01 1.00000000000000000000e+00 
layer_sizes=49 97 4 
scale_included=0
neurons (num_inputs, activation_function, activation_steepness)=(0, 0, 0.00000000000000000000e+00) (0, 0, 0.00000000000000000000e+00) (0, 0, 0.00000000000000000000e+00) (0, 0, 0.00000000000000000000e+00) (0, 0, 0.00000000000000000000e+00) (0, 0, 0.00000000000000000000e+00) (0, 0, 0.00000000000000000000e+00) (0, 0, 0.00000000000000000000e+00) (0, 0, 0.00000000000000000000e+00) (0, 0, 0.00000000000000000000e+00) (0, 0, 0.00000000000000000000e+00) (0, 0, 0.00000000000000000000e+00) (0, 0, 0.00000000000000000000e+00) (0, 0, 0.00000000000000000000e+00) (0, 0, 0.00000000000000000000e+00) (0, 0, 0.00000000000000000000e+00) (0, 0, 0.00000000000000000000e+00) (0, 0, 0.00000000000000000000e+00) (0, 0, 0.00000000000000000000e+00) (0, 0, 0.00000000000000000000e+00) (0, 0, 0.00000000000000000000e+00) (0, 0, 0.00000000000000000000e+00) (0, 0, 0.00000000000000000000e+00) (0, 0, 0.00000000000000000000e+00) (0, 0, 0.00000000000000000000e+00) (0, 0, 0.00000000000000000000e+00) (0, 0, 0.00000000000000000000e+00) (0, 0, 0.00000000000000000000e+00) (0, 0, 0.00000000000000000000e+00) (0, 0, 0.00000000000000000000e+00) (0, 0, 0.00000000000000000000e+00) (0, 0, 0.00000000000000000000e+00) (0, 0, 0.00000000000000000000e+00) (0, 0, 0.00000000000000000000e+00) (0, 0, 0.00000000000000000000e+00) (0, 0, 0.00000000000000000000e+00) (0, 0, 0.00000000000000000000e+00) (0, 0, 0.00000000000000000000e+00) (0, 0, 0.00000000000000000000e+00) (0, 0, 0.00000000000000000000e+00) (0, 0, 0.00000000000000000000e+00) (0, 0, 0.00000000000000000000e+00) (0, 0, 0.00000000000000000000e+00) (0, 0, 0.00000000000000000000e+00) (0, 0, 0.00000000000000000000e+00) (0, 0, 0.00000000000000000000e+00) (0, 0, 0.00000000000000000000e+00) (0, 0, 0.00000000000000000000e+00) (0, 0, 0.00000000000000000000e+00) (49, 4, 5.00000000000000000000e-01) (49, 4, 5.00000000000000000000e-01) (49, 4, 5.00000000000000000000e-01) (49, 4, 5.00000000000000000000e-01) (49, 4, 5.00000000000000000000e-01) (49, 4, 5.00000000000000000000e-01) (49, 4, 5.00000000000000000000e-01) (49, 4, 5.00000000000000000000e-01) (49, 4, 5.00000000000000000000e-01) (49, 4, 5.00000000000000000000e-01) (49, 4, 5.00000000000000000000e-01) (49, 4, 5.00000000000000000000e-01) (49, 4, 5.00000000000000000000e-01) (49, 4, 5.00000000000000000000e-01) (49, 4, 5.00000000000000000000e-01) (49, 4, 5.00000000000000000000e-01) (49, 4, 5.00000000000000000000e-01) (49, 4, 5.00000000000000000000e-01) (49, 4, 5.00000000000000000000e-01) (49, 4, 5.00000000000000000000e-01) (49, 4, 5.00000000000000000000e-01) (49, 4, 5.00000000000000000000e-01) (49, 4, 5.00000000000000000000e-01) (49, 4, 5.00000000000000000000e-01) (49, 4, 5.00000000000000000000e-01) (49, 4, 5.00000000000000000000e-01) (49, 4, 5.00000000000000000000e-01) (49, 4, 5.00000000000000000000e-01) (49, 4, 5.00000000000000000000e-01) (49, 4, 5.00000000000000000000e-01) (49, 4, 5.00000000000000000000e-01) (49, 4, 5.00000000000000000000e-01) (49, 4, 5.00000000000000000000e-01) (49, 4, 5.00000000000000000000e-01) (49, 4, 5.00000000000000000000e-01) (49, 4, 5.00000000000000000000e-01) (49, 4, 5.00000000000000000000e-01) (49, 4, 5.00000000000000000000e-01) (49, 4, 5.00000000000000000000e-01) (49, 4, 5.00000000000000000000e-01) (49, 4, 5.00000000000000000000e-01) (49, 4, 5.00000000000000000000e-01) (49, 4, 5.00000000000000000000e-01) (49, 4, 5.00000000000000000000e-01) (49, 4, 5.00000000000000000000e-01) (49, 4, 5.00000000000000000000e-01) (49, 4, 5.00000000000000000000e-01) (49, 4, 5.00000000000000000000e-01) (49, 4, 5.00000000000000000000e-01) (49, 4, 5.00000000000000000000e-01) (49, 4, 5.00000000000000000000e-01) (49, 4, 5.00000000000000000000e-01) (49, 4, 5.00000000000000000000e-01) (49, 4, 5.00000000000000000000e-01) (49, 4, 5.00000000000000000000e-01) (49, 4, 5.00000000000000000000e-01) (49, 4, 5.00000000000000000000e-01) (49, 4, 5.00000000000000000000e-01) (49, 4, 5.00000000000000000000e-01) (49, 4, 5.00000000000000000000e-01) (49, 4, 5.00000000000000000000e-01) (49, 4, 5.00000000000000000000e-01) (49, 4, 5.00000000000000000000e-01) (49, 4, 5.00000000000000000000e-01) (49, 4, 5.00000000000000000000e-01) (49, 4, 5.00000000000000000000e-01) (49, 4, 5.00000000000000000000e-01) (49, 4, 5.00000000000000000000e-01) (49, 4, 5.00000000000000000000e-01) (49, 4, 5.00000000000000000000e-01) (49, 4, 5.00000000000000000000e-01) (49, 4, 5.00000000000000000000e-01) (49, 4, 5.00000000000000000000e-01) (49, 4, 5.00000000000000000000e-01) (49, 4, 5.00000000000000000000e-01) (49, 4, 5.00000000000000000000e-01) (49, 4, 5.00000000000000000000e-01) (49, 4, 5.00000000000000000000e-01) (49, 4, 5.00000000000000000000e-01) (49, 4, 5.00000000000000000000e-01) (49, 4, 5.00000000000000000000e-01) (49, 4, 5.00000000000000000000e-01) (49, 4, 5.00000000000000000000e-01) (49, 4, 5.00000000000000000000e-01) (49, 4, 5.00000000000000000000e-01) (49, 4, 5.00000000000000000000e-01) (49, 4, 5.00000000000000000000e-01) (49, 4, 5.00000000000000000000e-01) (49, 4, 5.00000000000000000000e-01) (49, 4, 5.00000000000000000000e-01) (49, 4, 5.00000000000000000000e-01) (49, 4, 5.00000000000000000000e-01) (49, 4, 5.00000000000000000000e-01) (49, 4, 5.00000000000000000000e-01) (49, 4, 5.00000000000000000000e-01) (49, 4, 5.00000000000000000000e-01) (0, 0, 0.00000000000000000000e+00) (97, 4, 5.00000000000000000000e-01) (97, 4, 5.00000000000000000000e-01) (97, 4, 5.00000000000000000000e-01) (0, 0, 0.00000000000000000000e+00) 
connections (connected_to_neuron, weight)=(0, -6.53076802945434936598e-02) (1, -1.34066633358342013338e-01) (2, -1.36470425981358750578e-01) (3, -1.57090101523997105470e-01) (4, -2.86773529511034075412e-01) (5, -4.91244425507657012098e-02) (6, -5.44142822056775249395e-02) (7, -1.59803741392501891250e-01) (8, -1.56084167609699918378e-02) (9, -1.43969509051775773623e-01) (10, 5.63741000757355670281e-02) (11, -1.08708702245592384039e-01) (12, -1.63604403798741110387e-01) (13, -1.39951466594486428896e-01) (14, -1.82927429062639534951e-01) (15, 3.39686162083158577074e-02) (16, -1.18919007325972159173e-01) (17, -7.14588055014416245747e-02) (18, -1.84783783105463145224e-01) (19, -1.60477449950961276182e-01) (20, -1.58564107193259584694e-01) (21, -1.91483430001600007930e-01) (22, -6.87955843807793680084e-03) (23, -3.19794457595739767264e-01) (24, 8.36737957823357886289e-02) (25, -4.28841914742880414568e-02) (26, -1.86390453398181776823e-01) (27, -2.37273417935917302346e-01) (28, -3.07348776515520727415e-01) (29, -1.39917528064097296259e-01) (30, -2.02103251849618331670e-01) (31, -3.18684731949241850657e-01) (32, 6.88506056985597747477e-02) (33, -2.71883981858976296608e-02) (34, -1.72768477921146301757e-01) (35, -2.30147887598587730373e-01) (36, -2.84330911818200193775e-01) (37, -2.04889956655808141983e-01) (38, -1.63955620851829381168e-01) (39, -1.96354026270979697966e-01) (40, -5.09056742188387922887e-02) (41, -6.15720287214704745105e-02) (42, -7.86427548274915011461e-02) (43, -3.45410221694716690344e-01) (44, -4.61979051606415558329e-01) (45, -2.89994891200057058889e-01) (46, -1.40301515895837392023e-01) (47, -1.09821885459154472420e-01) (48, -1.49219166740102404667e+00) (0, 5.93524929826834968249e-02) (1, -1.32811871694512168007e-01) (2, -7.00172620300854031683e-02) (3, -1.02083308514304499370e-01) (4, -5.53696999556100633022e-01) (5, -2.89468553679606332985e-01) (6, -2.04844548964438905037e-01) (7, -4.89109103655165147750e-02) (8, 1.53816412363410565112e-01) (9, -3.77948003158657175327e-01) (10, -1.80978088112000390364e-01) (11, -1.95978478385542304041e-01) (12, -3.10283395938608652642e-01) (13, -1.58177239288087551072e-01) (14, 1.60137162242205734197e-02) (15, 2.94121136803353125377e-02) (16, -3.71096540916631245643e-01) (17, -3.42812888310383423462e-01) (18, -2.57159874521956710591e-01) (19, -4.39015338474572025529e-01) (20, -5.12846184651166603352e-01) (21, -4.50502499403149403445e-01) (22, -3.07322644003385825329e-01) (23, -4.97134268010657798254e-01) (24, -1.28525311099956324190e-01) (25, -3.29567497449688384670e-01) (26, -4.43756868822368144567e-01) (27, -5.60266724794845516477e-01) (28, -4.18081320040334103449e-01) (29, -5.43984093197204865433e-01) (30, -6.39583119531693888860e-01) (31, -6.42995454793910625746e-01) (32, 5.15963493671216313907e-02) (33, -4.61696517915242965469e-01) (34, -6.62870642149233746387e-01) (35, -7.60295602711488660574e-01) (36, -5.36942958530884917323e-01) (37, -3.88847635576553163350e-01) (38, -4.61642941709496990033e-01) (39, 5.87578307273751033329e-03) (40, 1.26730096595113923830e-02) (41, -3.02395371433059445554e-01) (42, -9.21010237101997919495e-02) (43, -1.01542084817870792435e+00) (44, -6.66170395515129909469e-01) (45, -3.46701415588485217789e-01) (46, 1.49296314276401251991e-02) (47, -1.83046250833255944035e-02) (48, -6.60607917438665093179e-01) (0, -8.51178358532663076330e-02) (1, -1.12481041286173463756e-01) (2, -2.00568790645262173822e-01) (3, -3.95398901374188482816e-02) (4, -2.16109840522558882547e-01) (5, -2.37511510418996318883e-01) (6, -1.32970694110269349597e-01) (7, -1.65922549861211326983e-01) (8, 1.21769048138603720038e-02) (9, -2.39841283347563827277e-01) (10, -1.06396029506517802998e-01) (11, -2.59818675173357771513e-01) (12, -2.54654532951337941871e-01) (13, -1.90244406533611798427e-01) (14, -1.75581028573475288190e-02) (15, -3.89084598998622674393e-02) (16, -2.58222725797812968640e-01) (17, -4.18500606419125120716e-01) (18, -1.52592106412282241257e-01) (19, -3.27119807022464903490e-01) (20, -2.40849719780117849099e-01) (21, -1.82502800271730408754e-01) (22, -1.18795401613839030075e-01) (23, -2.53739997561757857358e-01) (24, -2.19913279768314207097e-01) (25, -3.81699757672791462060e-01) (26, -4.16762461221534763478e-01) (27, -3.05617184425576171591e-01) (28, -2.55196215820974792177e-01) (29, -4.22946510020149768483e-01) (30, -3.34262532823986324715e-01) (31, -1.97876312196203357763e-01) (32, -1.99202150445461079187e-01) (33, -3.80429289390070812793e-01) (34, -4.34214433798576993073e-01) (35, -5.65468854689074040820e-01) (36, -2.76856110448952030811e-01) (37, -1.61030533128064645698e-01) (38, -2.39343145980427995934e-01) (39, -1.15885449213302432758e-01) (40, 4.77438835357501482198e-03) (41, -2.16425325154250641768e-01) (42, -1.22710724970925708077e-01) (43, -5.72997953304168694544e-01) (44, -4.65024727980908603175e-01) (45, -2.00640388588570445227e-01) (46, -1.30836682809135212979e-01) (47, 1.02890347019612381219e-02) (48, -1.19486488627672460261e+00) (0, -5.42218585251585116769e-02) (1, -6.75037009075302868455e-02) (2, -1.84553997761252613907e-01) (3, -2.01744793824063489707e-01) (4, -1.36468394656682423527e-01) (5, -2.38693471686775571250e-02) (6, -7.93552733476663718637e-02) (7, -3.83712921163978579187e-02) (8, -1.66969946162064619699e-01) (9, -1.31945587264798130933e-01) (10, -1.19575050095787241422e-01) (11, -1.12745911528919343092e-01) (12, -3.12911802112012027433e-01) (13, -1.87335618115875179868e-01) (14, -1.48440347108847514601e-01) (15, -2.56774310661133618738e-02) (16, -1.08671794135718716157e-01) (17, -1.15503248216049306252e-01) (18, -6.23873403366988141250e-02) (19, -1.88871710371203510581e-01) (20, -2.17993556476602262650e-01) (21, -1.54305273194672604165e-01) (22, -8.69174181555186636805e-02) (23, -1.21987702458888222501e-01) (24, -2.15343567772547650474e-02) (25, -7.87837707434781431282e-02) (26, -2.11258643369562848502e-01) (27, -1.90342441299457265647e-01) (28, -2.45503947802070243700e-01) (29, -1.29577540886173236956e-01) (30, -2.90888410522825324733e-01) (31, -2.18395176825720099822e-01) (32, -2.03480931699347479535e-02) (33, -1.17402351403421270626e-01) (34, -2.05019114164286808677e-01) (35, -2.27086450120140226350e-01) (36, -2.66240083213800160511e-01) (37, -2.27804094911790405709e-01) (38, -1.73237234250847998984e-01) (39, -6.97467469682301471900e-02) (40, -3.43947535849959285664e-03) (41, -1.52246925779764702424e-01) (42, -8.06339771364645019336e-02) (43, -3.99966025670698943628e-01) (44, -2.53323809327548998827e-01) (45, -2.12503343437984076880e-01) (46, -3.69023710938317511809e-02) (47, -4.09761414873981016926e-02) (48, -1.48384708939813192430e+00) (0, 1.43451561246462938604e-01) (1, -1.20727634468082212216e-01) (2, 3.16605381485916617668e-02) (3, 5.75322714200015988828e-02) (4, -3.04094293522645886529e-01) (5, -1.16530591039635797457e-01) (6, -1.24687440920836098424e-01) (7, -2.08312125694513017304e-01) (8, 1.10552223192700652121e-01) (9, -1.73628359952981231595e-01) (10, -1.56695720410604477646e-01) (11, -1.86091911489461109275e-01) (12, 5.72512801540145319090e-02) (13, -4.57465948021842719329e-02) (14, -9.78455028146490018992e-02) (15, -2.72109021779195048296e-01) (16, -2.27766323228937722645e-02) (17, -2.42179423372510638224e-01) (18, -1.56327565353416381155e-01) (19, -2.80867946388472622399e-01) (20, -3.81726868882960868046e-01) (21, -1.36438592181901491296e-01) (22, 1.67773524803107483561e-02) (23, -9.91669381621069628840e-02) (24, 3.98019008070210969508e-02) (25, -9.01414617383732852396e-02) (26, -1.44863965460136912000e-01) (27, -3.01946534961598067603e-01) (28, -1.15605560721985356487e-01) (29, -2.64142620098789804306e-01) (30, -3.00033346231356676248e-02) (31, -6.70216460960944143688e-02) (32, -2.14227563020967626262e-01) (33, -2.00647087811518853862e-01) (34, -1.50004429628014385179e-01) (35, -2.29583605436806337252e-01) (36, -2.70899378652455724570e-01) (37, -1.18562075568586000607e-01) (38, -2.40894742762343044840e-01) (39, -8.30841488747802864312e-02) (40, -1.09231864893837460340e-01) (41, -1.81697183418873142724e-01) (42, -5.68949173872592556256e-02) (43, -3.14113152252513183615e-01) (44, -2.21772604402945494595e-01) (45, -1.61967481474600633051e-01) (46, -1.64155423136074313240e-01) (47, 3.11174935510829531182e-02) (48, -1.52326973069299032026e+00) (0, -2.50184958827184313057e-02) (1, -1.56298020571109669286e-01) (2, -6.90108087977176487549e-02) (3, -2.32424223006513053225e-01) (4, -2.38205468985118795633e-01) (5, -1.14458717124940448362e-01) (6, -1.97366706476250347579e-02) (7, -2.82603293272927942603e-02) (8, -1.91953453740728502419e-01) (9, -1.74771192695687999086e-01) (10, -1.74238114895407442129e-01) (11, -1.53326017101991673997e-01) (12, -2.54282744066430477226e-01) (13, -6.48091160341704441983e-02) (14, 4.06958838931407163031e-02) (15, 1.22951691507695262673e-01) (16, -2.38686764930226891224e-01) (17, -2.52678005863928745178e-01) (18, -1.61324537135933088194e-01) (19, -1.54714585004236265808e-01) (20, -1.42774568767997572794e-01) (21, -2.20203662102489372554e-01) (22, -6.89653548365696117406e-02) (23, -1.96636611480094453119e-01) (24, -2.29070212487368085608e-01) (25, -1.35927105703866374364e-01) (26, -2.53446988913242743369e-01) (27, -2.14439077001997296934e-01) (28, -3.10166633921130419083e-01) (29, -1.89232685569417719007e-01) (30, -2.77106770571052929419e-01) (31, -9.33439128820745811499e-02) (32, -1.73903729814175213308e-02) (33, -2.61910198564084095718e-01) (34, -3.55832503300259339607e-01) (35, -2.11199723313744008868e-01) (36, -1.62752881867858023579e-01) (37, -2.76765270588135936514e-01) (38, -1.02453249118309441812e-01) (39, -1.12320922123379005053e-01) (40, 1.82634763256913718044e-01) (41, -5.62747697408635533245e-02) (42, 4.85573165016674607175e-02) (43, -5.23908306000581580619e-01) (44, -4.06995014552208933534e-01) (45, -2.37578408722281086973e-01) (46, -6.09441020811257033740e-02) (47, -5.24969033667782095098e-02) (48, -1.43760324087552660011e+00) (0, -1.46660982760438013406e-01) (1, -1.94488657722948710127e-01) (2, -7.32571426269084113869e-02) (3, -2.98073312876551255179e-01) (4, -3.75453474858893132549e-01) (5, -3.49440250797293960883e-01) (6, -1.26340247326056670518e-01) (7, 1.95106281075432957950e-02) (8, -8.06999189345944667462e-02) (9, -4.78619568546477358595e-01) (10, -1.66325487203599881036e-01) (11, -2.33525385365064147569e-01) (12, -4.23065076363466241460e-01) (13, -2.19653089868369927329e-01) (14, 7.16157682169709236542e-02) (15, 7.53901847769522515108e-02) (16, -3.28537778873554286996e-01) (17, -4.63395397006850062738e-01) (18, -2.21084934785108683242e-01) (19, -3.05627305781511704463e-01) (20, -1.94132773725942564536e-01) (21, -2.75083741831716077630e-01) (22, -9.27833801442727174047e-02) (23, -1.55750439647838551105e-01) (24, -2.66839057224861508910e-01) (25, -2.50954798630090847311e-01) (26, -4.55199920539493929628e-01) (27, -2.29371549306828181880e-01) (28, -3.78536839752444731477e-01) (29, -3.54926460554664036096e-01) (30, -2.25502463729078561627e-01) (31, 9.98193033573464838515e-02) (32, -9.93213916091975485001e-02) (33, -4.75820379993666164875e-01) (34, -5.37169944852041836292e-01) (35, -4.46279362418659453215e-01) (36, -3.39834577554648742392e-01) (37, -2.66730951821165462867e-01) (38, 8.64638829234967570825e-02) (39, -1.45712614428583020487e-01) (40, 1.00076823912773546499e-01) (41, -2.54663765808262443358e-01) (42, -1.15348881683302581513e-01) (43, -6.21118530502992816089e-01) (44, -4.07477188049366001454e-01) (45, -1.75439091163091420711e-01) (46, 6.40120422638231628687e-02) (47, 4.30876244047581104246e-03) (48, -1.28489727136101050675e+00) (0, -2.30030703154213839179e-01) (1, -2.35877469794970595629e-01) (2, -2.25002851896077021854e-01) (3, -1.25636815423995268359e-01) (4, -3.71173908462478885362e-01) (5, -3.53753936799803769819e-01) (6, 1.04724174326234261562e-02) (7, 1.20045847827298629573e-01) (8, -1.72118835701871003563e-01) (9, -4.49259041802030412160e-01) (10, -5.08535587659973420394e-02) (11, -2.53759396830730184214e-02) (12, -6.53140289264207751785e-01) (13, 2.15736292034120410999e-02) (14, -8.54877009720398789439e-02) (15, 4.66427203819119035044e-02) (16, -4.47630575396981811309e-01) (17, -3.27002026145748303509e-01) (18, -6.19594453785407006663e-02) (19, -3.33190691485397982863e-01) (20, -2.47377459542494515521e-01) (21, -1.70524381309245826044e-01) (22, -2.23742722031227241064e-02) (23, 3.70770044295874018868e-04) (24, -3.43323616716746271571e-01) (25, -2.34864902280324028272e-01) (26, -4.08559986236108396707e-01) (27, -2.40899111545505612009e-01) (28, -2.56414678105961246768e-01) (29, -1.15972714340070601202e-01) (30, -2.45252365572011965522e-01) (31, 1.87448102179760683894e-01) (32, 1.22334921974439264636e-01) (33, -2.33855505651082651308e-01) (34, -2.30054139915446625997e-01) (35, -1.39704788404842378258e-01) (36, -9.33497627158921122748e-02) (37, -1.62148921637597892564e-01) (38, 2.55830186418951943672e-01) (39, 6.75379182078866407979e-02) (40, 2.12124872165088768083e-01) (41, 2.11191123083939759353e-02) (42, 8.98746719124967480274e-02) (43, -5.00236602838271982030e-01) (44, -2.92443937957566235664e-01) (45, -2.33215985347304116670e-01) (46, 1.05017786797176479463e-01) (47, -1.30165103895689915348e-01) (48, -1.57064990221942979431e+00) (0, 4.04356968583156131669e-02) (1, 1.36911502058404715987e-01) (2, -2.29953990979261634064e-02) (3, -3.56293122700922837431e-01) (4, 9.94820765064454048954e-01) (5, 6.89983654423537484668e-01) (6, -6.61274368520569505447e-02) (7, -2.75392284026469758018e-01) (8, -5.97727783718276728386e-01) (9, 4.39550483090659860341e-01) (10, 3.93100119711304429870e-01) (11, 4.43488958385649334470e-01) (12, 7.20319485223185784761e-01) (13, -5.67217958148883982794e-01) (14, -5.60113362230868494507e-01) (15, -6.72999915944785365163e-01) (16, 6.63864967352368995357e-01) (17, 3.72550509354885150959e-01) (18, 4.03558774713562828929e-01) (19, 8.84012972398464991208e-01) (20, 7.99427718813927934427e-01) (21, 3.85514473945692714985e-01) (22, 7.45545567060703073814e-01) (23, 2.00875222480523563107e+00) (24, 2.79423523413496632806e-01) (25, 4.43034362242321233527e-01) (26, 1.34525600789625432441e+00) (27, 8.14336108020190185819e-01) (28, 2.97780763949535287605e-01) (29, 1.03802617154266840771e+00) (30, 1.72796387712582810714e+00) (31, 1.67347373620947692530e+00) (32, -1.10965062777340903177e-01) (33, 1.24092559753466402661e+00) (34, 1.55461907524697839911e+00) (35, 1.73553175618581723150e+00) (36, 8.39613935466007155206e-01) (37, 1.09699513380837587739e+00) (38, 8.66899428856483411643e-01) (39, 1.76025214898204052094e-01) (40, -3.55620485474712588747e-01) (41, 9.04306827417775238587e-01) (42, -5.92955265925797364579e-02) (43, 2.66315429973191442059e+00) (44, 1.04733157958330003190e+00) (45, 8.38274775093806878701e-01) (46, -9.64081510250252710081e-02) (47, 1.19887032243075047216e-02) (48, -7.96247704853758508925e-01) (0, -1.32373078063277554994e-01) (1, -8.78046886786459507279e-02) (2, 3.68320706417423664528e-03) (3, -8.98182363960980251205e-02) (4, -2.70375918514604351994e-01) (5, -1.14027129060322779397e-01) (6, -2.72623149130230946202e-01) (7, -1.09580351969591441308e-01) (8, 1.41446619660830774645e-01) (9, 1.35643811561522831255e-01) (10, 1.31156592536172483809e-01) (11, -3.65437208207902500257e-02) (12, -1.67140465274113914074e-01) (13, -3.38936397489416729734e-01) (14, -2.10661429095748753415e-01) (15, -1.81578882969335664299e-01) (16, 2.07534118099198389151e-01) (17, 1.50448195717662019932e-01) (18, -6.52370357208588436126e-02) (19, 6.08751232965456644947e-03) (20, -1.14342529531524655928e-02) (21, 1.38462414264593196983e-02) (22, 1.85207186947384139231e-01) (23, 8.84837986441898566303e-02) (24, 3.07858902423792157865e-01) (25, 2.09747824948233602127e-01) (26, 2.00532485865181603346e-01) (27, -9.41360714493502392930e-02) (28, 5.20346913587026588255e-02) (29, 4.24325443854588549297e-02) (30, 2.05581920323991640398e-01) (31, 2.52963600817971145940e-01) (32, -2.15895596556240659813e-01) (33, 3.13668921533301447990e-01) (34, 1.71097111594693679359e-01) (35, 5.14482919730283524973e-02) (36, -2.89214083460519855162e-01) (37, 9.70970154498901061313e-02) (38, 9.71053010350057671518e-02) (39, -1.21565889310693536762e-01) (40, -3.26188652166036152646e-01) (41, -5.16253714114386919043e-02) (42, -3.74443322460318861467e-02) (43, 8.24668711902106083000e-02) (44, -6.54277143967083724130e-02) (45, -1.25847306900821936937e-01) (46, -1.63205004463959986623e-03) (47, -4.83094085105243015166e-02) (48, -1.70372639550199367342e+00) (0, -1.68086403089195923766e-01) (1, -2.06156696381024129305e-01) (2, -1.43595620866598688847e-01) (3, -9.62116401263698600710e-02) (4, -4.29850440675155653913e-01) (5, -8.70281540154285992994e-02) (6, -9.59067554613886041892e-02) (7, -4.17729857618573813260e-02) (8, -6.91620522506812412944e-02) (9, -1.69354891405397528503e-01) (10, -2.86125777533158209831e-01) (11, -1.55314641049428991959e-01) (12, -3.02596412712816620338e-01) (13, -1.45233253854999994070e-01) (14, -1.06221210122138587373e-01) (15, 2.00101291460457408888e-01) (16, -2.62014764576701975063e-01) (17, -3.09731023157293283710e-01) (18, -2.35495749953465505211e-01) (19, -3.03653210159107012078e-01) (20, -3.68805463150095214075e-01) (21, -3.48715452529097635903e-01) (22, -2.21264622778244324230e-01) (23, -5.59860048525108400241e-01) (24, -4.93416960774503282616e-02) (25, -2.72081034190248427507e-01) (26, -2.44533565686459786193e-01) (27, -3.51085549051609047133e-01) (28, -4.25722732283015381505e-01) (29, -4.14304411906756542283e-01) (30, -5.29068715747680662354e-01) (31, -6.23182044452917582866e-01) (32, 4.75376952883532002958e-02) (33, -4.49350443633974805380e-01) (34, -4.24688204987660022915e-01) (35, -5.22645904768593516643e-01) (36, -4.70159801816576405908e-01) (37, -4.52244719134091199830e-01) (38, -3.49459357885163635071e-01) (39, 7.26209972921683204194e-03) (40, 1.66728821503065519072e-02) (41, -1.83442572333192277512e-01) (42, -4.30224334667774141461e-02) (43, -7.24383242344182387562e-01) (44, -6.46114232627955309418e-01) (45, -4.02720411677159551012e-01) (46, -5.38493162780885690349e-03) (47, -1.43356945467914831394e-01) (48, -1.03008414057421204824e+00) (0, -6.89645185210838312928e-02) (1, -1.27813450475242007531e-01) (2, -5.94569653228692387992e-02) (3, -1.37941160414119273758e-01) (4, -9.12711040836632625517e-02) (5, -1.01904802625861032328e-01) (6, -1.72425464977998849081e-01) (7, -1.34355079668064619769e-01) (8, -1.44828243416402657751e-01) (9, 4.67241446606413493581e-02) (10, -1.27032752947967421224e-03) (11, -9.22574677541326826358e-02) (12, -1.55046837947066001862e-01) (13, -2.46358596986401334750e-01) (14, -2.13849771163891116954e-01) (15, -3.14176801767837576840e-02) (16, 2.24909472645489667830e-02) (17, 1.59662719665077168507e-01) (18, -1.09227266580081798508e-02) (19, -6.45614313809229761754e-02) (20, -6.16355937655600344405e-02) (21, -1.02671983822573420486e-01) (22, 7.02939942982135079763e-02) (23, -3.35115320752619808009e-02) (24, 1.85926192222559988343e-01) (25, -1.73890935382931162423e-02) (26, -1.70230402639337807802e-02) (27, 2.63063460999061957124e-02) (28, -1.72729436326414159675e-01) (29, 1.69868786488828367454e-02) (30, -3.31075838067515365593e-02) (31, 6.63240152381217862310e-02) (32, -1.62821343215552416517e-01) (33, 1.75403891329794725529e-01) (34, -2.28351154492466082435e-02) (35, -3.13824100974772063344e-02) (36, -7.96274268193636891588e-02) (37, -1.01282441837070649737e-01) (38, -3.00002490145258177145e-02) (39, -1.91212804249442480664e-01) (40, -1.47493044955986946087e-01) (41, 5.51007606077909065090e-02) (42, -1.39386674979579683331e-01) (43, 4.35358641644686267247e-02) (44, -2.82426247994926223062e-02) (45, -8.53110586983453211829e-02) (46, -1.57256045174708619649e-01) (47, -5.12706065638321162314e-02) (48, -1.60507845236713331261e+00) (0, -1.47261584886820950935e-01) (1, -2.11193520580084809213e-02) (2, 7.59097090454662615233e-02) (3, -1.00213365323225653269e-01) (4, 1.23398264371253462562e-02) (5, 6.71405146439557898308e-02) (6, -2.22321934896625245104e-01) (7, -1.47705142117529747425e-01) (8, -3.51844460803299174945e-01) (9, 1.00882955019241632444e-01) (10, 1.60684258707955079926e-01) (11, -6.18877124316227350542e-02) (12, -2.26419343100147718584e-01) (13, -2.73264294724665790515e-01) (14, -3.14903045946930748578e-01) (15, -6.59987195936223292048e-02) (16, 1.22130172173692069792e-01) (17, 2.89803156143158269220e-01) (18, 7.69636415776938920263e-02) (19, 1.09962856038109124679e-01) (20, -2.42123007470532031205e-02) (21, 1.03385678366841246567e-01) (22, 1.70611027059121928007e-01) (23, 3.75928260237985201186e-01) (24, 2.43580355014280630632e-01) (25, 6.54140917824440615291e-02) (26, 2.07040138334190160219e-01) (27, 5.84395085283973513002e-03) (28, -1.59262440916419084624e-01) (29, 1.51837529347596339457e-01) (30, 3.66890572918696311611e-01) (31, 3.22265247279811595238e-01) (32, 6.54380611511175269701e-02) (33, 3.91256718696549987691e-01) (34, 2.36358724969844585795e-01) (35, 1.60198224562489111023e-01) (36, -1.76772795631323399734e-02) (37, 2.06683730889330369296e-01) (38, 2.66575396270367692697e-01) (39, -7.95986916626459789503e-02) (40, -5.60152044603609133161e-03) (41, 1.98140680256972845363e-01) (42, -7.13514420831870832540e-02) (43, 2.30975468029268660164e-01) (44, -5.19656935534121809661e-03) (45, 4.67482911655815111529e-02) (46, -7.12790144064789216172e-02) (47, -1.98911424867775160630e-01) (48, -1.64960452897443765607e+00) (0, -6.18047747031020555664e-02) (1, -2.19841070812780814414e-01) (2, -1.79658992315688131880e-01) (3, -2.33804468148573640907e-01) (4, -1.81984431306150468144e-01) (5, -1.15361484740838834973e-01) (6, -1.05453967687205843462e-01) (7, 1.03992012677966136347e-01) (8, -1.16235411449896686165e-01) (9, -3.39032671686493869423e-01) (10, -1.80403623832927961779e-01) (11, -1.90064320376420681225e-01) (12, -3.75596631438303019124e-01) (13, -1.88427714213638436425e-01) (14, -4.85099234496703876629e-02) (15, 2.86146846761294038064e-02) (16, -2.26620160169500872716e-01) (17, -4.11970279525537774745e-01) (18, -1.95520967411611651388e-01) (19, -1.01113249994663992326e-01) (20, -1.79927475016621402082e-01) (21, -1.73369039439556116289e-01) (22, -5.77331272392575950425e-02) (23, -2.07782770220940535277e-02) (24, -2.30681473935992559232e-01) (25, -1.10408974300408663227e-01) (26, -2.37780248564576912607e-01) (27, -2.70146834787765355301e-01) (28, -2.99721849262595541052e-01) (29, -1.21632247315415983890e-01) (30, -3.20856078514306503058e-02) (31, 1.49859744501270597539e-01) (32, 1.69042382647073760604e-02) (33, -3.42149220512986851350e-01) (34, -1.37557566496965849590e-01) (35, -1.80097762375639763865e-01) (36, -2.49172920365679423371e-01) (37, -9.88983984514701236490e-02) (38, 1.19662483335917349536e-01) (39, -1.16796449109770203445e-01) (40, -2.36277427208173495740e-03) (41, -1.71845761885524500601e-01) (42, -5.74338793328832836194e-02) (43, -4.24046669761792061060e-01) (44, -1.80512581405486927100e-01) (45, -1.96336607956265132846e-02) (46, -8.14307399778910895316e-03) (47, -1.71160409540280500362e-01) (48, -1.52832536578759170531e+00) (0, -3.30025597180945706732e-01) (1, -2.94009830133495242421e-01) (2, -9.41107322064436285780e-02) (3, -1.31765270043768978336e-01) (4, 3.63928659320060299276e-01) (5, 2.69424377650920365834e-01) (6, -1.27233232255894140872e-01) (7, -1.24123123207403596169e-01) (8, -7.83327690312158986252e-01) (9, -3.20831535455819882863e-01) (10, 2.70605340766767066274e-01) (11, 1.17575067187709450534e-01) (12, 1.17109608161233627599e-01) (13, 1.90446302084550309064e-02) (14, -5.21722883968099293561e-01) (15, -4.83203585474423602530e-01) (16, -1.78344521587954218944e-01) (17, -1.54201237037101500371e-02) (18, 6.80138501019198815634e-01) (19, 4.69183724394054924023e-01) (20, 5.21168715660189851846e-01) (21, 3.00368591197057555053e-01) (22, 2.10582325643217049826e-01) (23, 6.50107070923085172964e-01) (24, -2.51838084417543683902e-01) (25, 2.74942238811926364939e-01) (26, 5.83963186672860734561e-01) (27, 6.22022358899909366681e-02) (28, -1.52777772047554466495e-01) (29, 2.41690141839924071965e-01) (30, 6.05509177270952547723e-01) (31, 9.48325443345617191682e-01) (32, 4.85272070346635275850e-01) (33, 7.30626293839282126008e-01) (34, 7.89475255230990047295e-01) (35, 8.78695672990853715589e-01) (36, 2.02547597572139026489e-01) (37, 1.89722258759348255674e-01) (38, 5.60211713192826477048e-01) (39, 7.88865777726707184669e-02) (40, 4.00295910893276318809e-01) (41, 8.47291900021904464957e-01) (42, 2.83255677345520096022e-01) (43, 9.03527856687639574496e-01) (44, -1.28509150121249218074e-02) (45, -1.40418441414121297761e-01) (46, -1.79513188989070704427e-01) (47, -1.83447787679410861950e-01) (48, -1.81480211095275034694e+00) (0, -8.24379801483317020683e-02) (1, -1.08541219716953213359e-01) (2, -7.31004985271101331845e-02) (3, -1.90560623918632238150e-01) (4, -1.70600143378458191101e-01) (5, -9.05769958441285383266e-02) (6, 6.80884982482570823292e-03) (7, -9.12053922613643291983e-02) (8, -1.86241176717182634059e-02) (9, -1.00040507698855765661e-01) (10, -1.08640231459672331749e-01) (11, -5.75107550783946139261e-02) (12, -1.61842187183025149055e-01) (13, -3.38541598881423322354e-02) (14, -1.20813525348938133330e-02) (15, -1.53686190940345690503e-01) (16, -1.54940086050223496672e-01) (17, -1.37117511831357036245e-01) (18, -1.53382683974930988935e-01) (19, -2.56122142002337960243e-01) (20, -2.64872407278031407607e-01) (21, -1.65792876743826728125e-01) (22, -9.52778096881725239387e-02) (23, -1.43043473079338012699e-01) (24, -4.93819222239873026337e-02) (25, -4.00148042003441728465e-02) (26, -2.01198245548792231663e-01) (27, -8.60627249208630040744e-02) (28, -1.83170862382020099846e-01) (29, -1.92692863801281283331e-01) (30, -6.11549949897558509093e-02) (31, -1.70926611250101306849e-01) (32, -1.30086182044978959649e-01) (33, -1.29618436201856757073e-01) (34, -9.63067912178071500184e-02) (35, -2.66772652281299482713e-01) (36, -1.94123847358714629596e-01) (37, -1.84519042710507535920e-01) (38, -2.00488889942636555608e-01) (39, -5.76143081139909689348e-03) (40, -5.37686389423150251643e-02) (41, -1.47085995906680117029e-01) (42, -1.33796526467954111916e-02) (43, -3.20355099200676285420e-01) (44, -2.47550628901949704153e-01) (45, -1.03631614664396590197e-01) (46, -1.62861345571136240107e-01) (47, 3.18713420599696633378e-03) (48, -1.51922793026234104197e+00) (0, -1.93769580967186438869e-01) (1, -5.52857006562118002968e-02) (2, -7.85595210634680851669e-02) (3, -1.71426466481322120616e-01) (4, -3.63020107663328955860e-03) (5, -3.48117783724822965619e-02) (6, -1.48869053200252232649e-01) (7, -6.58649035158157675207e-02) (8, -3.22230339158136369626e-01) (9, -1.90685544741167417593e-01) (10, -5.71604339116001877730e-02) (11, 4.86044488856550438438e-02) (12, -2.20739492317682112210e-01) (13, -7.47952344161524340649e-02) (14, -1.67343683583131341841e-01) (15, 6.13496631684907409165e-02) (16, -1.99708490282344997002e-01) (17, -8.34098608700205440547e-02) (18, 8.78835510614461683232e-03) (19, -8.20920461580048749228e-02) (20, 6.66660503427141948318e-02) (21, -9.21732939170716858435e-02) (22, 5.26294273656996158817e-02) (23, -7.33841744105262067110e-02) (24, -1.14210523112423217862e-01) (25, -4.45710599852136360455e-02) (26, -5.67825167556822094084e-02) (27, -1.33182713683471028350e-03) (28, -3.51373873141299086775e-01) (29, 8.26682596730577146094e-02) (30, 1.43491137249027213285e-02) (31, 6.94710075775609309234e-02) (32, 5.30003272857701990262e-02) (33, 8.71227470156370753518e-02) (34, -5.13210659243531416851e-02) (35, 4.56917813074085021885e-02) (36, -2.26886837881075872914e-02) (37, 3.95843826785548802416e-02) (38, 1.56848922266362517108e-01) (39, -9.99233385584142874691e-02) (40, 1.79511781164003375588e-01) (41, 1.30504932203599821605e-01) (42, 7.10235005776166938851e-02) (43, -1.27734841399545967500e-01) (44, -2.06241395574685904002e-01) (45, -1.37057391130397637768e-01) (46, -1.62863574851819986611e-01) (47, -2.37637276300760841297e-01) (48, -1.61567512848250771640e+00) (0, -5.22355813525855680601e-02) (1, -3.33807841527501703016e-02) (2, 8.30278499261789676433e-02) (3, -7.44961966677858550279e-02) (4, -1.29123651599126251094e-02) (5, -3.89654470699115421106e-02) (6, -7.29201826426247035062e-02) (7, -4.08547124161996039193e-03) (8, -1.12644529187909694934e-01) (9, 2.55616068930809459125e-01) (10, 2.31084483963674841567e-01) (11, -1.35790734169172255807e-01) (12, -2.61726758323708119658e-01) (13, -1.06575483483917099470e-01) (14, -1.86018468388802121760e-01) (15, -3.21349665740788881241e-01) (16, 3.99824619879231013542e-01) (17, 3.58303390151950507114e-01) (18, 1.98630949106252757685e-01) (19, 8.75174951450467114578e-03) (20, -8.38241137725984769569e-02) (21, -1.66034836208235420107e-01) (22, 5.79812439948366661890e-02) (23, 2.90710730543493611755e-01) (24, 2.82976227483010267516e-01) (25, 2.48622800854934267178e-01) (26, 3.12235189432848503355e-01) (27, 9.83976425196085302538e-02) (28, -1.59227028752241400733e-01) (29, 1.95323402218998493085e-01) (30, 4.03661189763071359682e-01) (31, 3.32837856618389771324e-01) (32, 1.26958151270754132645e-01) (33, 5.38205398428566406110e-01) (34, 4.72257278941762503877e-01) (35, 2.17454830658751124828e-01) (36, -1.19672138496257018936e-01) (37, 2.89457381618791032007e-01) (38, 2.53293523726178526623e-01) (39, 1.51480009469902227037e-01) (40, 5.46900037965198648759e-02) (41, 3.23625832736419039026e-01) (42, 5.60845519240226603186e-02) (43, 3.77237288128252079566e-01) (44, 7.44308959904852185385e-02) (45, 5.58948522528963029354e-02) (46, -1.56097279014706796785e-01) (47, 1.26011740750520323529e-01) (48, -1.65895222441987777451e+00) (0, -1.39864155844793530692e-01) (1, -4.14304061111921972937e-01) (2, -5.52668454656184304774e-01) (3, -1.93218644240018444513e-01) (4, -4.86731863657555385849e-01) (5, -6.54262235905824079962e-02) (6, -2.67603034979958687156e-01) (7, -3.00763356868430475899e-01) (8, 4.01472257102367894449e-03) (9, -4.77734416605266443145e-01) (10, -4.48683305694946354958e-01) (11, -5.29513707331333960404e-01) (12, -2.96417390598047558736e-01) (13, -1.15142595539542758054e-01) (14, -3.05476022056000828808e-01) (15, -2.39106811569456539912e-01) (16, 1.66453922716592289666e-01) (17, -4.42917208312834875805e-01) (18, -1.96754954783242036465e-01) (19, -7.20813032329889691319e-01) (20, -6.73470998539596243937e-01) (21, -2.20744925787109552706e-01) (22, -2.04780822098141357390e-01) (23, -5.52877830149277826877e-01) (24, 3.99408141534491500924e-01) (25, -2.42677654084097081319e-03) (26, -1.40716417002291704907e-01) (27, -3.72112388953373562916e-01) (28, -3.96258316768134444263e-01) (29, -3.74247220660497703637e-01) (30, -2.94980660210898082418e-01) (31, -8.67105684135396681533e-01) (32, -1.69432796729575479988e-01) (33, -5.88944152573711646181e-02) (34, 6.56868693232732087095e-02) (35, -3.79443283824383692515e-01) (36, -8.41033669509464010261e-01) (37, -3.99532298331358726173e-01) (38, -4.40433828686112027739e-01) (39, -1.77417986838271590777e-01) (40, -3.73949500090199837832e-01) (41, -3.49940881104125300904e-01) (42, 1.08597137549988939642e-01) (43, -1.93799793912550338826e-01) (44, -6.97790790450517839361e-01) (45, -2.87560660605623907848e-01) (46, -2.36105881308104892380e-01) (47, 3.34584086662807964063e-02) (48, -1.22888688496964237906e+00) (0, -1.74209711518069743086e-01) (1, -1.42410524077033723289e-01) (2, -1.67925615901930502805e-01) (3, -2.20884845801777807139e-01) (4, -3.32810179671065797802e-01) (5, -1.47768681089112119409e-01) (6, -1.46481451953569707936e-01) (7, -1.59140516097741518964e-01) (8, -4.43565681904585073364e-03) (9, -1.38248622850817709518e-02) (10, -7.28918311929436096852e-02) (11, -8.03284204499925130749e-02) (12, -3.99275907530141083157e-01) (13, -1.77590926980703972538e-01) (14, -2.97198216144523352789e-01) (15, 1.35706755545531437823e-01) (16, 5.95094131067905526833e-02) (17, 1.18445536532619938308e-02) (18, -1.70424529402474350670e-01) (19, -2.74706562370059803602e-01) (20, -1.85873283452323734277e-01) (21, -3.05721845202724273882e-01) (22, -1.73844895493977691370e-01) (23, -2.41370700738383708872e-01) (24, 1.03019769225076926467e-01) (25, -1.27344326494473913947e-01) (26, -6.22488908028438620024e-02) (27, -2.04572382357460336166e-01) (28, -3.16884963058065349806e-01) (29, -2.49569301380252184241e-01) (30, -3.69750268528180991989e-01) (31, -4.14594866893231994709e-01) (32, 1.26068577397685111646e-02) (33, -1.16311662250526012818e-01) (34, 1.04375747308317456258e-02) (35, -1.25311493010093838452e-01) (36, -4.50909239657631744080e-01) (37, -3.13262886126555284427e-01) (38, -2.88031184234509018971e-01) (39, -2.83329901702934594532e-01) (40, -9.98194455977082922837e-02) (41, -1.36875611037546002224e-01) (42, -1.06988967175237398299e-01) (43, -2.25185505726308132779e-01) (44, -2.43805292161128839279e-01) (45, -5.90865490992269620785e-02) (46, -1.98712091761510917243e-01) (47, -1.51632351471846921198e-01) (48, -1.49109622775790451321e+00) (0, 1.63400030566514808950e-02) (1, -1.13168323708778689740e-01) (2, -9.76942915987195764638e-02) (3, -9.81448861125908955660e-02) (4, -1.78410299354872126099e-01) (5, -2.25376551821324377922e-01) (6, -7.06074600906705235337e-02) (7, 4.86226738403572056324e-02) (8, -2.70279759528568204463e-02) (9, -2.20084879949710182645e-01) (10, -1.34296241738250665687e-01) (11, -2.29928870836632354147e-01) (12, -3.53657931721626850319e-01) (13, -1.77170418950222313681e-01) (14, -6.46645743794297817031e-02) (15, 6.00758519374381960709e-02) (16, -1.59559282810130237396e-01) (17, -1.75407424487882573905e-01) (18, -1.77741013026533445363e-01) (19, -1.92050448572812115788e-01) (20, -1.51573244481779972892e-01) (21, -2.98241530916431518694e-01) (22, -1.30894618425181186172e-01) (23, -3.06353712109468379055e-01) (24, -2.09418625192100388288e-01) (25, -2.24340117134390226727e-01) (26, -3.61849956697921026905e-01) (27, -3.05307594667212855999e-01) (28, -3.51050603224358825916e-01) (29, -2.80740682770612759445e-01) (30, -2.23577469367138098599e-01) (31, -1.72447328073965427953e-01) (32, -2.52553193950016026392e-02) (33, -2.45300556814047387988e-01) (34, -3.35693266247011012915e-01) (35, -3.41775276883265310968e-01) (36, -2.66335702130548523936e-01) (37, -3.15691107606548226894e-01) (38, -1.50003729232710381059e-01) (39, -5.67009103819302931471e-02) (40, 1.71068767068028107503e-02) (41, -1.28231798604078517378e-01) (42, -4.93906591667387234734e-02) (43, -6.08035913270184691370e-01) (44, -3.93610228852724952642e-01) (45, -2.72444716746168824617e-01) (46, -4.74295478117550545205e-02) (47, -1.14537442287885551928e-01) (48, -1.34844690027123603748e+00) (0, -3.06038159005872445473e-01) (1, -1.84289264844786887521e-01) (2, -4.40802132229531212770e-02) (3, -2.83244005775774132516e-01) (4, 1.89479128365996236927e-02) (5, -1.52664519834336487314e-01) (6, -2.02676326300122895685e-02) (7, 4.63947362371619556609e-02) (8, -3.15101193325397210820e-01) (9, -2.47568428610191015871e-01) (10, 2.99461733289625579076e-04) (11, -5.17986640529421379919e-02) (12, -1.56560255000745329745e-01) (13, 5.34858358077868953351e-02) (14, -2.25710246063347469425e-01) (15, 5.50622627109715254146e-02) (16, -3.77357919156821097761e-01) (17, -1.92327145485350597953e-01) (18, 2.12888129001344628133e-01) (19, -3.77063956243020095838e-02) (20, 8.82704181097597184724e-02) (21, -5.86801412211722939194e-02) (22, -4.07859908242104232667e-02) (23, -4.76206484693590045842e-02) (24, -1.98693491211279271713e-01) (25, -6.74208451795160340625e-02) (26, -1.24391444813473139863e-01) (27, -1.36262982352343603454e-01) (28, -3.30166408649184173196e-01) (29, 9.53528267921201766466e-02) (30, -7.26723995016016754978e-02) (31, 1.51874312042943798717e-01) (32, 1.56775119565779358366e-01) (33, 7.89739452506110911623e-02) (34, -1.52179164337732264478e-01) (35, 6.66668114871239309016e-02) (36, -5.37845908842087064294e-02) (37, -1.30809954554670204718e-01) (38, 1.82642529896440752868e-01) (39, -2.30251965959149901275e-01) (40, 1.48592806305061109207e-01) (41, 7.24074724996469909488e-02) (42, 8.50514051604140952634e-02) (43, -1.94463375199587257258e-01) (44, -1.53895780786251157313e-01) (45, -1.60432310943526307279e-01) (46, -9.57956426822698520196e-02) (47, -3.95219951571365746279e-01) (48, -1.65207491299973296961e+00) (0, 1.34133465787735606245e-01) (1, 5.07068476718192592823e-02) (2, -5.72737797621406113935e-02) (3, -3.44737140726402791283e-03) (4, -2.46492813378719838324e-01) (5, -2.93466976605008429690e-02) (6, -2.45153295729696019123e-01) (7, -1.80321247395648531775e-01) (8, 1.37920827040072524472e-01) (9, -1.11955880546945538145e-01) (10, 4.65727353188191087879e-03) (11, -1.82731711171993382870e-01) (12, -2.10733235125698831203e-01) (13, -4.06317658682210577914e-02) (14, 4.30259443563065641092e-02) (15, -2.30403147424736914894e-01) (16, -1.95003951586284127173e-02) (17, -9.64056330839995756499e-02) (18, -3.20269930822651219260e-02) (19, -1.14406288117891094536e-02) (20, -1.84296319237800682034e-01) (21, -1.42261782180691298549e-01) (22, -7.13876900897388450007e-02) (23, 2.85338688141278384869e-02) (24, -1.04816913856128499094e-01) (25, -4.42453475027185308410e-02) (26, -8.25333769860806809593e-02) (27, -1.59219170681128535660e-01) (28, -1.09848796397732484387e-01) (29, -1.58479547746024712618e-01) (30, -4.86889110286043633180e-02) (31, -4.49534484606576092980e-02) (32, -2.00696135512496848241e-01) (33, -1.23500178557457582218e-01) (34, -7.75174024980588294298e-02) (35, -2.44772343009780096734e-01) (36, -2.96272133857833686044e-01) (37, -4.89818139022544646322e-02) (38, -2.59504826404450515687e-02) (39, -5.14127974731809975206e-02) (40, -1.34853754563997119131e-01) (41, -7.55140479527437319396e-02) (42, -7.01264235280915776416e-02) (43, -9.24116245143455500299e-02) (44, -4.59026454733395400387e-02) (45, -8.99516999105568759720e-02) (46, -2.17773475851023093353e-02) (47, 1.34993915552234278188e-01) (48, -1.59942702804165626240e+00) (0, 1.88997421382317148941e-01) (1, 1.89524175116257437290e-01) (2, 1.93936738071885161894e-01) (3, 2.21433041201039543244e-01) (4, -2.97010475146492369802e-01) (5, -3.22945061491267254583e-02) (6, -3.12055990708124453281e-01) (7, 3.64390709528281606100e-02) (8, 4.00859939309227586435e-01) (9, 2.10325728275095102937e-01) (10, 2.92071090627358975755e-01) (11, -2.24175876229509296600e-01) (12, -1.46419185668414275625e-01) (13, 1.23706743343648839506e-01) (14, -1.73758992620213041647e-02) (15, -3.88482183210715481536e-01) (16, 1.82007158068354074620e-01) (17, 3.63593103605821810209e-01) (18, 1.90129232007622578360e-01) (19, 1.97813013332990728088e-01) (20, -4.06514292953384537288e-01) (21, -2.25060741959105942156e-02) (22, -2.57498906779646159759e-02) (23, 4.07426006738592638712e-01) (24, -2.67006438678095647798e-01) (25, 2.77427478392942537810e-02) (26, 5.06308153724199017098e-01) (27, 1.05294815603667643589e-01) (28, 3.04549420129058445728e-01) (29, 2.06639221112052823282e-01) (30, 3.09684538004924403420e-01) (31, 2.85852840439474953360e-01) (32, -2.00505868864739672519e-01) (33, -1.94303458563182124275e-01) (34, 6.99073452312065773961e-02) (35, 1.47489928560707472815e-01) (36, -1.76988182464966586904e-01) (37, 3.20635774924283079024e-01) (38, 1.48338314688785971596e-01) (39, 1.25194555806760782213e-01) (40, -3.13214761123114804331e-01) (41, -1.56709982481007537025e-01) (42, -2.95116982580707565287e-01) (43, -1.80780326340943153784e-01) (44, 1.75797519061827361986e-01) (45, 2.78821423319424388509e-01) (46, 2.45695248363217877419e-01) (47, 1.89409831722674421028e-01) (48, -1.98231027789216329715e+00) (0, -1.09435134440428998709e-02) (1, 1.35492074506150372154e-02) (2, -1.23996704431244247901e-01) (3, -1.52983222025213944084e-01) (4, -6.56920918267077547092e-01) (5, -4.74451352888114408213e-01) (6, -2.86347277910028341630e-01) (7, -8.26579426682948759098e-02) (8, 3.19859521305306648831e-01) (9, -4.91415100799000359455e-01) (10, -2.57641409984606328809e-01) (11, -4.13626413771003120790e-01) (12, -5.94847626090116099462e-01) (13, -1.58423535570400453310e-01) (14, 3.03231888066430310680e-02) (15, 1.66862842312574699566e-01) (16, -5.09038761048892562933e-01) (17, -5.44617236974952789730e-01) (18, -5.13571435126155995121e-01) (19, -4.61407782003835253981e-01) (20, -5.93148700362542191655e-01) (21, -4.79293096391136208556e-01) (22, -3.24358611446806499590e-01) (23, -5.42334020179036313536e-01) (24, -4.27893880927564473904e-01) (25, -5.37370108423749770488e-01) (26, -7.56411174107230799279e-01) (27, -7.48613853904789294802e-01) (28, -4.51720022551724886828e-01) (29, -6.56215370116369767217e-01) (30, -6.86709241416195492747e-01) (31, -4.60323935916037652039e-01) (32, -4.23170725781429335477e-01) (33, -7.77414915996053390579e-01) (34, -1.00509449876332923601e+00) (35, -1.20265826341579917802e+00) (36, -5.87355048913569044444e-01) (37, -5.46825552565556649576e-01) (38, -2.22684411024049122574e-01) (39, -5.72814294190947745355e-02) (40, 1.16663016299533191245e-02) (41, -5.73517506168395585497e-01) (42, -6.15989927061651593165e-02) (43, -1.76026483577778591894e+00) (44, -6.76234443088875369909e-01) (45, -4.36658469502473278734e-01) (46, 1.61527463577086999313e-01) (47, -5.89297325953211815347e-03) (48, -2.43343820218217488094e-01) (0, 1.79105211152258414486e-01) (1, 3.33732584747358515878e-03) (2, 4.50159443776364243117e-02) (3, 2.13893702126353668636e-01) (4, -1.36293259566272806360e-01) (5, -1.64290305314918033686e-01) (6, -2.34243109163434853892e-01) (7, -1.21039315046174211776e-01) (8, 1.24069047586082038814e-02) (9, -5.20252961220043608215e-01) (10, -2.93221106207378956476e-01) (11, -2.82588298450104857817e-01) (12, 1.52723400605231235394e-01) (13, 7.46215861297040011779e-02) (14, 6.10961393467725419337e-02) (15, -2.11528615628019334149e-01) (16, -3.22804267162610181163e-01) (17, -6.37553560329796265016e-01) (18, -3.31723441932814944177e-01) (19, -4.50263131752741796454e-01) (20, -3.57603303838240516033e-01) (21, -1.40686768010032190596e-02) (22, -1.48555775724650090952e-01) (23, 8.89224521617593549605e-02) (24, -5.19396852123749974695e-01) (25, -5.31597995293362490798e-01) (26, -3.51243658511329714944e-01) (27, -5.15175649301241489475e-01) (28, -1.44184447873654475458e-01) (29, -5.18459155706552321519e-01) (30, 2.36741728364888819047e-02) (31, -1.94387904127520314002e-02) (32, -2.13540368913959888175e-01) (33, -6.84747553871778880108e-01) (34, -5.48186438924847418974e-01) (35, -5.63320953134639479387e-01) (36, -5.53479159517176744210e-01) (37, -1.60130529352560557754e-01) (38, -3.61129608345650554568e-01) (39, -7.74337247031425951471e-02) (40, -1.19269706660801930176e-01) (41, -3.30281511862123400292e-01) (42, -2.70562178978267453555e-01) (43, -7.10119722650644602524e-01) (44, -5.06323565851915735614e-01) (45, -3.30051554273477820711e-01) (46, -2.02402313097274799691e-01) (47, -1.89147305700839846176e-02) (48, -1.30901635999243715069e+00) (0, -1.32566848700879091894e-01) (1, -1.70700307557810848635e-01) (2, -1.07850244148138166289e-01) (3, -5.79328326245141175810e-02) (4, -1.09203578790028080214e-01) (5, 1.15425323497353737867e-02) (6, -4.29165029902052672095e-02) (7, -4.50071595201447655077e-02) (8, -8.31081087117604283554e-02) (9, -1.67774427468175835187e-01) (10, -3.11963126641157488528e-02) (11, -1.49753847558311559141e-01) (12, -1.42216273435792267543e-01) (13, -2.18950865289989637930e-02) (14, -6.51783442290402442731e-02) (15, -1.27550922233198360534e-01) (16, -1.18092046298056710385e-01) (17, -8.20753083472055000591e-02) (18, 9.95264002953719084665e-02) (19, 2.14977442811116817301e-02) (20, -1.09406604205515331496e-01) (21, -7.01189881100823669824e-02) (22, -9.50814884788942632499e-02) (23, 8.31570347065290621513e-03) (24, -1.14135924771793365040e-01) (25, -1.73009581320532727922e-02) (26, -1.50826963102686173457e-01) (27, -1.54146475530146931376e-01) (28, -3.26576259634787424702e-01) (29, -2.76311049529669484903e-02) (30, -5.99215328320578180521e-02) (31, 1.64185336320313429725e-02) (32, 6.49243615510597116280e-02) (33, -3.21818775195156850377e-02) (34, 1.38390429304798556753e-02) (35, -3.45702414201308136366e-02) (36, -7.02769971184975389411e-02) (37, -1.20176492214358575372e-02) (38, 1.33786718760494194314e-01) (39, -1.92012018050525534729e-01) (40, 1.54084803653406404722e-01) (41, 6.54833306091207462130e-02) (42, -1.58568454425172290778e-02) (43, -1.95644327641508491977e-01) (44, -2.19690496636158916210e-01) (45, -2.96106268517085310932e-02) (46, -1.02318341602153001224e-01) (47, -2.70472036482131528157e-01) (48, -1.62818561797639027589e+00) (0, -4.36189691664345055577e-02) (1, -1.75047647294189617773e-01) (2, -2.48788949785907598233e-01) (3, -1.23921694520958206032e-01) (4, -4.89728951533680734176e-01) (5, -3.22640327743685673134e-01) (6, -9.43676680241529175497e-02) (7, 6.16515081524329905394e-02) (8, 9.16115662051979889879e-02) (9, -4.62958459035600067288e-01) (10, -2.24186600123142371066e-01) (11, -2.48833926537360389242e-01) (12, -4.49630338347131897070e-01) (13, -5.73197818268412137566e-02) (14, 1.60068503730177835731e-01) (15, 4.43778228740137128949e-02) (16, -5.37990675836528264853e-01) (17, -5.60318709359492239663e-01) (18, -2.98201156507897080505e-01) (19, -3.91110937374559486379e-01) (20, -2.59699447584114839760e-01) (21, -4.04760104190497183030e-01) (22, -2.89338675878786588669e-01) (23, -3.52306222853619510627e-01) (24, -3.60065694642313305351e-01) (25, -4.56297152334706357379e-01) (26, -6.79899775335481515448e-01) (27, -5.21302625777747885572e-01) (28, -4.52016704846866401724e-01) (29, -5.49338371500162070404e-01) (30, -5.40053338902884649819e-01) (31, -3.56092125284557692311e-01) (32, -9.50245582731645971331e-02) (33, -6.60013447724298263353e-01) (34, -7.39917989319664126668e-01) (35, -8.68569437391460197340e-01) (36, -3.69636521418290675545e-01) (37, -3.32217502748081705555e-01) (38, -2.77278118144739127438e-01) (39, -1.51933612129449002737e-02) (40, 6.39959559086697438168e-02) (41, -4.28875354273040187980e-01) (42, -2.06557569567058854632e-02) (43, -1.12891991983662243193e+00) (44, -5.99733456428410360850e-01) (45, -2.86128291732376971446e-01) (46, -6.82982613722746406681e-02) (47, -1.02748055739577653922e-01) (48, -7.52235748433158990522e-01) (0, -1.10535273870642752198e-02) (1, -6.64521846069252991596e-02) (2, -1.90405656926839472742e-01) (3, -1.59568497995756841679e-01) (4, -2.28702885506923803138e-01) (5, -2.18333572437995476756e-02) (6, -2.01070527857885317236e-02) (7, 1.99428460608688344624e-02) (8, -1.47605004213321566731e-01) (9, -1.15600741676694873661e-01) (10, -1.48326064759507381119e-01) (11, -5.89230888037863484441e-02) (12, -3.26226062940914829369e-01) (13, -5.77299029194194152081e-02) (14, 4.61115054175298480499e-02) (15, -6.12781060666377705437e-02) (16, -1.72433569695816302225e-01) (17, -1.73793283397265962975e-01) (18, -1.48078478021176768165e-01) (19, -1.71639537226381144741e-01) (20, -1.73507223469504257007e-01) (21, -1.70364213103658901360e-01) (22, -3.70957255097791524512e-02) (23, -2.61807932811269662710e-02) (24, -1.06930491600784313699e-01) (25, -3.52936099090442184645e-02) (26, -1.81190649062812986214e-01) (27, -9.08682305660383771162e-02) (28, -3.63042941173983169101e-01) (29, -1.34918461792246396902e-01) (30, -1.00844194557507996213e-01) (31, 5.11822801612503569535e-02) (32, 4.48940004139574549979e-02) (33, -1.96607890876458468732e-01) (34, -1.61382046307154497500e-01) (35, -1.67049897205296837832e-01) (36, -1.70138398470583152022e-01) (37, -5.92808567734793359638e-02) (38, 7.26412897851857336518e-02) (39, 4.57140968322748419972e-02) (40, 2.74813599035207169197e-03) (41, 5.71109942980076515373e-02) (42, -1.00196968889903897937e-01) (43, -2.83748424185056469238e-01) (44, -1.74850272854619070984e-01) (45, -3.84332031290511924593e-02) (46, -8.35164744869955344431e-03) (47, -8.02928126796185331893e-02) (48, -1.60242350898742191845e+00) (0, 6.95269955021153400476e-03) (1, -1.20240240982978877082e-01) (2, -1.62850660507577987834e-01) (3, -4.40087584520675659250e-02) (4, -7.06101320594326953284e-01) (5, -5.14158622419318089847e-01) (6, -2.35139949676957338287e-01) (7, -1.15001156260177192503e-01) (8, 1.58408788798595351333e-01) (9, -6.05945578514051841346e-01) (10, -2.79517559099840662284e-01) (11, -3.44087005445776028534e-01) (12, -5.54267087038656014464e-01) (13, -2.01068313804465076400e-01) (14, 1.04371223822999265041e-01) (15, 2.26380661521000031700e-01) (16, -4.92196530919568053797e-01) (17, -6.11220009677961195749e-01) (18, -4.65205769878259955963e-01) (19, -5.11852804882042655699e-01) (20, -4.76227577537419177744e-01) (21, -4.83691742025878890221e-01) (22, -3.29522354779687165482e-01) (23, -6.15369165192825695598e-01) (24, -3.81608356033852513800e-01) (25, -6.65340488805200691580e-01) (26, -8.45774702930488286867e-01) (27, -5.74052969892587805489e-01) (28, -5.79122665330884189849e-01) (29, -6.66613618506665006613e-01) (30, -7.46613118877423986852e-01) (31, -4.92493699071935020495e-01) (32, -2.51622892927449048894e-01) (33, -8.31574885507624150804e-01) (34, -9.35126697087584446422e-01) (35, -1.14662544824931478260e+00) (36, -5.99919085134660523551e-01) (37, -4.80560977332818106689e-01) (38, -2.64094837319801600817e-01) (39, -2.13463849681334548458e-02) (40, 1.01927304827593837033e-01) (41, -5.54782217463872795449e-01) (42, -1.94132093392342552907e-01) (43, -1.64820550104383123369e+00) (44, -6.96655748373516736649e-01) (45, -4.01632993421615236418e-01) (46, 4.68960469494061615858e-02) (47, 8.00087849004848944423e-02) (48, -2.78988328507183191984e-01) (0, 1.13840059195560810990e-01) (1, -1.06106639899119753467e-01) (2, -1.26305256362436363338e-01) (3, -5.43361863114746809766e-02) (4, -3.02890902714377852067e-01) (5, -1.10981285524494502348e-01) (6, -1.35625954329431891443e-01) (7, -2.47175128521345821575e-01) (8, 1.04468380936662524894e-01) (9, -1.79940380794327198233e-01) (10, -1.83106924217530581123e-01) (11, -2.12081603366863102877e-01) (12, -2.07784652974244865575e-01) (13, -1.58598484289733832053e-01) (14, 8.00148669761838599035e-02) (15, -1.87584319682465472390e-01) (16, -6.15062817363962177630e-02) (17, -3.51627994231022089622e-01) (18, -1.50490212409267881677e-01) (19, -2.91972206616032514681e-01) (20, -3.14785256945940783435e-01) (21, -3.06036015119496074277e-01) (22, -2.58241600795152015380e-01) (23, -2.03683018891482520152e-01) (24, -1.21034197941339793925e-01) (25, -2.68806560155266383028e-01) (26, -3.31900130742687260454e-01) (27, -3.77121721492761519112e-01) (28, -1.05780852225488289364e-01) (29, -2.95044283119319128428e-01) (30, -3.01139304415901420953e-01) (31, -3.92793328121163243249e-01) (32, -2.31846213642466214555e-01) (33, -4.61592250509646417900e-01) (34, -2.49217490161185190045e-01) (35, -4.77829053369022649367e-01) (36, -4.46122484547300246494e-01) (37, -2.42651462038218385109e-01) (38, -4.24155033053741525872e-01) (39, -1.11503093276097711706e-01) (40, -3.65657905603447505594e-02) (41, -2.35045244040181622314e-01) (42, -1.46314586831729265270e-01) (43, -4.21652724676279566651e-01) (44, -3.87148164806853323228e-01) (45, -1.62306847848069146778e-01) (46, -1.50202029875824899507e-01) (47, 3.47493851131902564688e-02) (48, -1.24506084287974627678e+00) (0, 6.09406562723107739221e-02) (1, -2.42121377241778755474e-02) (2, 6.07451248232273276206e-03) (3, 3.19212916016886616433e-02) (4, -4.08182478103667367719e-01) (5, -2.10551502215657243555e-01) (6, -3.21355554329877335373e-01) (7, -2.24483508673010589973e-01) (8, 1.92116123971679320093e-01) (9, 1.08076634125295625855e-01) (10, 6.80283924511088239351e-02) (11, -1.84966075554249487212e-01) (12, -3.58345679608844738806e-02) (13, -1.78270389245261950961e-01) (14, -1.49706151707281825969e-01) (15, -1.33655980982851002592e-01) (16, 1.85187006220132677203e-01) (17, -3.25040510002807536694e-02) (18, -7.74907638862570302685e-02) (19, 2.20285503290698382595e-02) (20, -2.47456087034835070515e-01) (21, -9.39604035289495764793e-02) (22, 2.80495812042409163600e-02) (23, -8.55064750087501657116e-02) (24, 2.29191344609454450421e-01) (25, -1.30617750489919359769e-01) (26, -2.34728899377795036107e-02) (27, -6.04917548668367360820e-02) (28, 2.66061871933029221726e-02) (29, -1.90220476162383078655e-01) (30, -1.25197468071613249307e-01) (31, -1.59000762250505522921e-01) (32, -3.52116147276766044971e-01) (33, 5.87161248383324188560e-02) (34, -7.79451549822667844047e-02) (35, -2.40889472454779929311e-01) (36, -2.77180682479461149015e-01) (37, -9.05922649424397985474e-02) (38, -9.15634329761607218545e-02) (39, -1.01126190024055151451e-01) (40, -2.75058704487786909176e-01) (41, -1.68780793851256993854e-01) (42, -1.72146928759117495700e-01) (43, -1.67612555069401758523e-01) (44, -1.63759341075530306941e-01) (45, -6.85405936248808939082e-02) (46, -8.08881519173411389634e-03) (47, 8.20945850601019905257e-02) (48, -1.60198084448756294940e+00) (0, -2.01836720605881453361e-01) (1, -4.59075193256422431354e-02) (2, -1.24171268105000578985e-01) (3, -3.59511708864970858102e-01) (4, -2.80156465400674015154e-01) (5, -3.07464124914925529541e-01) (6, -3.81152973794562033305e-01) (7, -3.14561479352818140764e-01) (8, 1.05951180077574980132e-01) (9, 3.63848537519474823920e-01) (10, 4.28822351708033955298e-01) (11, 1.75114949899918409537e-01) (12, -7.60330717040952785979e-01) (13, -8.38079171064925798618e-01) (14, -4.45042612146729854583e-01) (15, -3.99205494326529741755e-01) (16, 4.93705863266797218003e-01) (17, 4.31626112639771186696e-01) (18, 2.07848191412011218393e-01) (19, 2.40963363378467243514e-01) (20, 3.45345672117419941194e-02) (21, 2.24544682879061173464e-02) (22, -2.08843022263151684159e-02) (23, 1.72193951021839988628e-03) (24, 4.66760429124694287140e-01) (25, 3.80212666344317107292e-01) (26, 4.74474953699266566165e-01) (27, 2.89429391538635505388e-01) (28, 3.19880970397812713912e-01) (29, 1.41788007175445374131e-01) (30, 2.78682208857858673690e-02) (31, 2.03281282697252485558e-01) (32, -4.02745390357737931275e-01) (33, 3.82462698367707465419e-01) (34, 5.12857716625582438219e-01) (35, 2.83410050893474374512e-01) (36, -1.07839298007275541380e-01) (37, 3.57595683141471276656e-01) (38, 2.89718814959831261202e-01) (39, -1.77656237503641373232e-01) (40, -4.72682387530159953126e-01) (41, 5.83573201200935642863e-02) (42, -2.72891184702699629572e-02) (43, 3.38159503534645911049e-01) (44, 1.16921657068932621781e-01) (45, 3.04517955924523964217e-01) (46, 1.79572856011639775398e-01) (47, -5.98807197464579082924e-02) (48, -1.86543518789886419995e+00) (0, -6.85800083040551261560e-02) (1, -7.66834957076969608858e-02) (2, 3.53182882014482668609e-01) (3, 2.65388060449913733285e-02) (4, 2.26890841200125287225e-01) (5, -9.99950054872209836976e-02) (6, -6.05603729359245002151e-01) (7, -2.64230319843566596738e-01) (8, 1.78748028572476430620e-01) (9, 4.16634665715176655265e-01) (10, 4.28577353324705256910e-01) (11, 8.47202797998899276299e-02) (12, -6.88310648436474530748e-03) (13, -7.38951103009625631657e-01) (14, -4.89475431091316803833e-01) (15, 1.87262617725214797204e-01) (16, 3.38013744480105682300e-01) (17, 6.49331629447464586669e-01) (18, 5.82272954691804636718e-02) (19, -8.39200322939595982907e-02) (20, 1.42089769584615943643e-01) (21, -2.20650486691088804081e-01) (22, 2.42978220130140920574e-01) (23, 7.90320217344690628680e-02) (24, 6.96711994663404499128e-01) (25, -2.46746020292309020672e-01) (26, 2.36420729092200243571e-01) (27, -4.05811558984231546265e-01) (28, -4.61634166387591360348e-01) (29, -5.28539392447980427292e-01) (30, -3.11199725058020973401e-02) (31, 2.06101139509628827895e-01) (32, -6.77603089479538595041e-02) (33, 4.68628024647982921458e-01) (34, -4.31119918553902123359e-02) (35, -8.08695941189402467408e-01) (36, -2.90628984459710582033e-01) (37, -3.03618133265877498950e-01) (38, 1.73476949234214722351e-01) (39, -1.91330983369707857689e-01) (40, -9.45015260425353526008e-02) (41, -8.58834086229209696384e-03) (42, -7.27907881631886910512e-01) (43, -4.94847186731119714764e-01) (44, -2.60817710434653515783e-01) (45, -5.97306740851262563119e-01) (46, -6.94772184172266632496e-02) (47, -1.52090145071199528415e-01) (48, -1.63197205923503818603e+00) (0, 4.93565570041879855823e-02) (1, 3.59804211120934996915e-02) (2, -3.42070082853893481234e-02) (3, -5.61682138313474438318e-02) (4, -2.23921875650899798726e-01) (5, -9.06029185584293350608e-02) (6, -2.96944487372997611985e-01) (7, -1.11269393546057124289e-01) (8, -4.71348942354432934310e-02) (9, -1.99097317028781806147e-01) (10, -7.66356869752119473915e-02) (11, -2.73744554038709952959e-01) (12, -2.62156765101674238405e-01) (13, -1.34101680271663914468e-01) (14, 4.77246338693241983764e-02) (15, -3.78484002476453140762e-01) (16, -7.67281543927487985624e-02) (17, -3.53070807350413184977e-01) (18, -8.06968505455838008844e-02) (19, -3.37056036937838809919e-01) (20, -3.51045491580437241108e-01) (21, -2.15230759584343622759e-01) (22, -1.65886544315771738978e-01) (23, 7.19510615549752291509e-02) (24, -3.33683593468092842826e-01) (25, -2.23778668302258121336e-01) (26, -2.93100588977041442984e-01) (27, -2.23681607440278901189e-01) (28, -1.69023561577838293823e-01) (29, -2.20698524297216952528e-01) (30, 1.69977691442524149468e-02) (31, 2.44283267415194599304e-01) (32, -2.29466230009056637584e-01) (33, -3.29175812311586046821e-01) (34, -2.09324666588631552733e-01) (35, -2.86187609898895189975e-01) (36, -2.16238398935521713984e-01) (37, -6.65462250870146321269e-02) (38, 1.92105807957665894459e-02) (39, 5.77068896817030316249e-02) (40, -1.33495158625625803817e-01) (41, -2.25641008691529587615e-01) (42, -3.93279183569745782734e-02) (43, -3.57943512043699119118e-01) (44, -2.29146634909945801084e-01) (45, -1.66006874197348858191e-01) (46, 8.59071519203314509783e-03) (47, 1.44163163131950822216e-01) (48, -1.55448525482918431528e+00) (0, -2.81091573894376001164e-01) (1, -1.23262373914843376133e-01) (2, -2.75092074209074166635e-01) (3, -2.72617241011157918074e-01) (4, -4.81914376906713848303e-01) (5, 2.88488034186392579283e-02) (6, -1.60910763311506971318e-01) (7, -9.20655033428764424386e-02) (8, -1.07819145823620607394e-01) (9, -2.93565714367679912733e-02) (10, -7.27055863590166245869e-02) (11, -1.52237368811171724925e-01) (12, -5.41354509543325201903e-01) (13, -3.30902997192377867908e-01) (14, -3.30718306592499455832e-01) (15, 7.05972264369208873935e-02) (16, -3.82046993959817213216e-02) (17, -1.17838289317838809667e-01) (18, -5.66253036570898218849e-02) (19, -2.86437266184415006975e-01) (20, -5.62762987887844290391e-01) (21, -4.69522479729984676400e-01) (22, -3.37747629724964026909e-01) (23, -5.46022371509499615527e-01) (24, 2.74849605436382926626e-01) (25, -1.29827130943839436084e-01) (26, -3.16648649408896795676e-02) (27, -2.48584060992203315088e-01) (28, -4.89633534731441388832e-01) (29, -4.53787785285158395965e-01) (30, -5.22653580699566133738e-01) (31, -6.78702127074862882061e-01) (32, 3.92827800526238737899e-02) (33, -1.56708407737685684324e-01) (34, 1.89691681359476713165e-02) (35, -1.12850999275910718334e-01) (36, -6.02416856697010283384e-01) (37, -2.94926954409941211033e-01) (38, -5.14717101357984430088e-01) (39, -1.88936585464029388470e-01) (40, -1.69196363735022642372e-01) (41, -2.20990031325135921625e-01) (42, -1.05677989007783829090e-01) (43, -2.01966575922944840960e-01) (44, -5.89270562213134008189e-01) (45, -1.46470764213386145380e-01) (46, -6.85087184260177034512e-02) (47, -2.23598117803271295712e-01) (48, -1.35759571266022716074e+00) (0, -8.83102264641745932083e-02) (1, -1.41957323884818659154e-01) (2, -1.47574820627465158607e-01) (3, -2.76345119715575904262e-01) (4, -2.64754495374895926219e-01) (5, -7.49827864782703079616e-02) (6, 5.25188032178436001174e-02) (7, -4.59240704799197679842e-02) (8, -4.47225008872594118753e-03) (9, -2.53063862604326006434e-01) (10, -1.08650567200654898925e-01) (11, -5.83466081795965332835e-02) (12, -3.38348992667637626930e-01) (13, -2.02676946257184853462e-01) (14, -1.29029022673719739878e-01) (15, 1.04448404625200122475e-01) (16, -7.00117959437217968199e-02) (17, -1.07807627814905632180e-01) (18, -2.13282326099542729470e-01) (19, -2.75032447443057437297e-01) (20, -3.73308788351713438658e-01) (21, -3.86079271526648115653e-01) (22, -1.65906844374521272867e-01) (23, -3.30919722835038343511e-01) (24, 7.08524484943959809158e-02) (25, -1.48649268794977834629e-01) (26, -8.28115759925598382551e-02) (27, -2.52806468959682506537e-01) (28, -3.31625717204854397746e-01) (29, -2.08963103992936743980e-01) (30, -3.92812209825849467659e-01) (31, -5.17997075523099037575e-01) (32, -2.08574134866817174905e-02) (33, -2.22710026252764314858e-01) (34, -2.53010569873831581145e-01) (35, -3.89596282603959120916e-01) (36, -3.21194580228159942692e-01) (37, -3.28143162700976931401e-01) (38, -4.14422838585501551734e-01) (39, -1.17384667688406663100e-01) (40, -8.87508740100397854056e-03) (41, -2.17440761944294347341e-01) (42, -4.39215997747596925693e-02) (43, -3.46584447647571125550e-01) (44, -4.48353879228763796405e-01) (45, -1.95516228364024990949e-01) (46, -1.26063237575196579465e-01) (47, -6.55920422880255926668e-02) (48, -1.35475800896226106218e+00) (0, -5.08577710303190141938e-02) (1, -1.10794581280618406605e-01) (2, 2.81940500736417229422e-02) (3, -1.07232666683997016066e-01) (4, -3.22795850052805644026e-01) (5, -1.83551451870908009789e-02) (6, -1.59101299696494058455e-01) (7, 1.38606082339111404134e-02) (8, 3.31209876082664417263e-02) (9, -1.24818274275528884321e-01) (10, -7.21580561034256690034e-03) (11, -1.58476832401242134774e-01) (12, -3.50027980433905316904e-01) (13, -2.45800910474026801378e-01) (14, -2.90088097471343231426e-01) (15, 1.57674334561408752142e-01) (16, -1.26043172829885363750e-01) (17, -8.25201057367862811365e-02) (18, -1.95369226839766707560e-01) (19, -1.94972401302489883879e-01) (20, -4.37638775436719640322e-01) (21, -2.86723383603104897688e-01) (22, -1.73986046862070059538e-01) (23, -5.12810714147236779148e-01) (24, 1.20921388762584083865e-01) (25, -1.07948144916665281223e-01) (26, -2.16306153819566693297e-01) (27, -2.29027449345840905526e-01) (28, -4.60900508788764373680e-01) (29, -3.25617361011861228270e-01) (30, -5.13052209085831822932e-01) (31, -6.00258118097242054922e-01) (32, 1.21506901654242147059e-01) (33, -2.30961619226761005752e-01) (34, -2.45899959167350801170e-01) (35, -4.26446766193325443872e-01) (36, -4.66913427032099648262e-01) (37, -3.79173132920998023909e-01) (38, -2.97613088501415157250e-01) (39, -1.48567001390491781887e-01) (40, 4.68027593120557035278e-03) (41, -2.41184085045035412342e-01) (42, -1.51351425429201297268e-01) (43, -4.38058391249699752290e-01) (44, -6.25657734206379934072e-01) (45, -1.72928599548697797816e-01) (46, -1.80753920811438650862e-01) (47, -1.31009143058511107194e-01) (48, -1.33094701018153083183e+00) (0, -3.55983092830054748124e-02) (1, 4.54740868946122492322e-02) (2, 5.18291129316089463352e-02) (3, 1.87112817260705679989e-02) (4, -5.31826276321150301363e-02) (5, -5.60167833365169953730e-02) (6, -1.60584609116053433908e-01) (7, -1.27542008714472514253e-02) (8, 1.46090144801775317918e-01) (9, -8.36130894989418338437e-02) (10, -1.10332269213519670870e-01) (11, -1.93550467804651182835e-01) (12, -2.11717211088242429629e-01) (13, -9.54639255970136796359e-02) (14, -3.81337913043366116828e-02) (15, -2.87240169436377867918e-01) (16, 1.48757249854685053014e-01) (17, -1.99490808455827256518e-01) (18, 3.86249420561368466895e-03) (19, -6.30044191744835863078e-02) (20, -1.71308292199175038473e-01) (21, -1.06615026636639617652e-01) (22, -1.50698066974569638843e-01) (23, 2.11758877116209831559e-01) (24, 5.88418491221040680650e-03) (25, -1.54485677294958961836e-01) (26, -1.23047377603027977694e-02) (27, -1.44834053912901411509e-01) (28, -1.10341796449561713178e-01) (29, -7.54046787165784382356e-02) (30, 1.79191252848332871483e-01) (31, 1.54590319296863815124e-01) (32, -8.34667981612484954912e-02) (33, -1.67405237882053636866e-01) (34, -3.06481929161562085054e-03) (35, -1.11043421636235026262e-01) (36, -3.29785431640294057765e-01) (37, 7.43921745545821633261e-02) (38, 4.05911399904772523389e-03) (39, -7.88716862687631747875e-02) (40, -4.47376260342990106356e-02) (41, -1.88202583902791057736e-03) (42, -1.73916378769098295409e-01) (43, -2.74901134112197700898e-02) (44, -1.38690156497640992850e-01) (45, -6.56530735453265817947e-02) (46, -1.11440720288993641574e-01) (47, 1.59706564479249954469e-02) (48, -1.63035751691392372109e+00) (0, 1.60605237128079253450e-01) (1, 3.80651813275995204444e-02) (2, 1.65207133346015500042e-01) (3, 2.49378002828110789668e-01) (4, -3.17073411521290315918e-01) (5, -1.73558791328061512438e-01) (6, -7.71187758690661390171e-02) (7, -1.67143879336585469975e-02) (8, 1.84553490418089521929e-01) (9, -3.04963213424615312008e-02) (10, 9.25086583843017923323e-02) (11, -2.25524027066917709394e-01) (12, 9.53463382468996006880e-02) (13, 4.28367223902697200066e-02) (14, 1.10098739471166023884e-01) (15, -3.38536993442035250013e-01) (16, 7.43422396089511994255e-02) (17, -6.77234975084075874197e-02) (18, 4.31973868986922568403e-02) (19, -2.40700991072173402230e-02) (20, -2.82938577214274844529e-01) (21, -7.69543966311639071609e-02) (22, -7.67153193579058478857e-02) (23, 2.18527815481539627873e-01) (24, -7.25707677828378028284e-02) (25, 3.62785688935511954623e-02) (26, 1.12404169185407271092e-01) (27, -2.19619698252557817020e-02) (28, 1.39085507669199803793e-01) (29, 1.54196642753047924446e-02) (30, 2.24629324906069294254e-01) (31, 1.20811233245599308761e-01) (32, -1.05491073224098425021e-01) (33, -1.56806487696470792104e-01) (34, 5.12265271046991044201e-02) (35, -2.10248281544006848653e-01) (36, -3.49919951642151894067e-01) (37, 1.65247822499044683120e-01) (38, 1.11648008646181157166e-01) (39, 4.54594516475123819332e-02) (40, -2.56019964792094267825e-01) (41, -1.78417353362407132833e-01) (42, -1.97393631020033211154e-01) (43, -1.08330135681931602476e-01) (44, -1.42772331427319848496e-01) (45, -7.50662364945582361031e-02) (46, 5.52030510029564089325e-02) (47, 2.43772482741528767614e-01) (48, -1.79095009948999051019e+00) (0, -4.26981982833056425419e-02) (1, -1.30329253334941025377e-01) (2, -8.65046825442453148902e-02) (3, -7.77655114844869460589e-02) (4, -1.96663794489493337636e-01) (5, -4.32315140274505335660e-02) (6, -2.31457006548142191216e-01) (7, -1.65563252681084988049e-01) (8, 1.13932733742901401430e-01) (9, -2.31874366861355624136e-01) (10, -1.56191810821250304242e-01) (11, -2.09177055041059489771e-01) (12, -1.32513878173940086169e-01) (13, -1.41068439838037712475e-01) (14, 1.15778939317014613331e-02) (15, -2.51075692429816199613e-01) (16, -1.38882475269068300650e-01) (17, -2.31406643345215490282e-01) (18, -5.44235375295276657681e-02) (19, -1.67298155645040885764e-01) (20, -3.27716009016003007037e-01) (21, -1.30778292897204578837e-01) (22, -7.89879189445635288003e-02) (23, -8.08647642604825959978e-03) (24, -1.21772478010378285007e-02) (25, -1.65607175979689352774e-01) (26, -2.46815692702921224422e-01) (27, -2.00407644412258473254e-01) (28, -2.09209524232465193805e-01) (29, -1.40735869127700280456e-01) (30, -1.12783692314201797885e-02) (31, -9.41415211622529113367e-02) (32, -2.02818699263934032473e-01) (33, -2.54991418582380779956e-01) (34, -1.88300409523790179822e-01) (35, -2.56951224110348708241e-01) (36, -2.67473790580775083736e-01) (37, -1.13059351194324239631e-01) (38, -1.25150427266832620088e-01) (39, -2.24540712999200774147e-02) (40, -1.44716768365369535809e-01) (41, -2.38745971354374336704e-01) (42, -1.15171808045572310331e-01) (43, -2.93017702902803323095e-01) (44, -2.86935409202573432630e-01) (45, -1.11640946841336116679e-01) (46, -1.86660837018269215593e-01) (47, -2.74281266654508928959e-02) (48, -1.47032597315096547064e+00) (0, -9.23826599460617903237e-02) (1, -2.20799070893744259214e-01) (2, -2.22859542544323857571e-01) (3, -1.00711391907014280456e-01) (4, -3.39307790724375724078e-01) (5, -3.18649774302311394880e-01) (6, -3.39712708008702013451e-01) (7, -1.57538601664059890739e-01) (8, 5.22672411134849079772e-02) (9, 1.66452776456310569397e-01) (10, 1.26167251328655888321e-01) (11, 8.42002486152636647754e-02) (12, -2.80352024459185278360e-01) (13, -4.56689305450597438085e-01) (14, -3.39520943207418879339e-01) (15, -3.97412038066910555667e-01) (16, 4.40497813271970184434e-01) (17, 1.91294219574607071710e-01) (18, 2.51295838859446306335e-02) (19, -5.25603766837377042731e-02) (20, -1.53435988054063891101e-02) (21, 1.26240037948478184271e-01) (22, 2.13664125039829705388e-01) (23, -1.28199126301168451342e-02) (24, 3.52713929885622334837e-01) (25, 3.67418252751271157130e-01) (26, 1.71593171452765563822e-01) (27, 6.99875193335494777402e-02) (28, 1.73439562072720654395e-01) (29, 2.22803910714948691374e-02) (30, 2.25880090834925773002e-01) (31, 2.93032253500458583773e-01) (32, -3.83687027910980971157e-01) (33, 3.57864818759267289128e-01) (34, 3.49378973098406875319e-01) (35, -1.47931788028982276473e-02) (36, -2.53540206084428842992e-01) (37, 7.09074052405973126456e-02) (38, 2.54877794377803557069e-01) (39, -4.96121798987010018123e-02) (40, -3.89111020687786357541e-01) (41, 4.18854412046764448818e-02) (42, 4.39056878043624088104e-02) (43, 2.06877934494008791644e-01) (44, -2.26826233915215419445e-01) (45, -1.78853782250620735317e-02) (46, -6.40903175539904307323e-02) (47, 4.87359903845134972977e-02) (48, -1.82695304668206914833e+00) (0, 4.63312215379528755110e-02) (1, -9.03712487434546046794e-02) (2, -1.35346333706722166124e-01) (3, 6.28032290983659424732e-02) (4, -3.23878385075141883576e-01) (5, -3.35992322370191887071e-01) (6, -1.50600879462299414024e-01) (7, -1.24844966096294807123e-01) (8, 1.30293878877289825979e-01) (9, -5.58698077192258946155e-01) (10, -2.68511642173882791873e-01) (11, -2.10335194572704498039e-01) (12, -1.04034356322629875646e-01) (13, -9.27441031493227291405e-02) (14, 1.80717309678824600283e-01) (15, -1.44679503191721292588e-01) (16, -3.77872126793660889632e-01) (17, -7.33193640515574007743e-01) (18, -4.07480797846410003338e-01) (19, -4.56570871465553029811e-01) (20, -2.65231302653358813615e-01) (21, -2.01960511328653280483e-01) (22, -3.34827335454222108080e-01) (23, -1.60833831826204948223e-01) (24, -4.95349934599624897036e-01) (25, -6.46264375319141493037e-01) (26, -5.47442791266618211665e-01) (27, -6.09451595539061807827e-01) (28, -2.08645814521596445479e-01) (29, -5.86690172464944148523e-01) (30, -4.31172091460082840264e-01) (31, -2.56263124883453430325e-01) (32, -3.35580166139331670383e-01) (33, -7.95213727617879562182e-01) (34, -6.64642433976843305388e-01) (35, -8.89103171218740606641e-01) (36, -5.05482886118734708880e-01) (37, -3.23424064754891604778e-01) (38, -2.81034719169010072104e-01) (39, -8.74298526497394035140e-02) (40, -8.03210418188470970380e-02) (41, -4.80793098960115683482e-01) (42, -1.69911347739506307652e-01) (43, -1.02015474252998417093e+00) (44, -5.84043290584986607428e-01) (45, -3.85977834079913262322e-01) (46, -1.88428559939368772680e-01) (47, 8.26105909295475754339e-02) (48, -8.75365996043061755927e-01) (0, -1.97061235951327046179e-01) (1, -9.31326814115804452188e-02) (2, 8.77295616168624059483e-02) (3, -2.33029402252447975785e-01) (4, -2.23123025495438970234e-01) (5, -1.05142978939481060441e-01) (6, -2.86771399397840187628e-01) (7, -2.36729379111924848056e-01) (8, 2.82742838368061656911e-04) (9, 1.57086079206785522722e-01) (10, 2.30149961693333959811e-01) (11, 1.50328126488061264432e-01) (12, -5.25473687866564898030e-01) (13, -4.03369892060287560387e-01) (14, -3.01832326704197795308e-01) (15, -1.99049899447262867991e-01) (16, 1.55750089349769582636e-01) (17, 2.75293327336736948219e-01) (18, -1.40819572846135082633e-01) (19, 2.05632037936288522562e-02) (20, -1.19896896593963200872e-01) (21, -1.28652062706888281607e-01) (22, 5.12410286610857843015e-02) (23, -1.65669395644447048355e-01) (24, 2.67282011716141743030e-01) (25, 5.48204735654534633382e-02) (26, 2.34113107143395809961e-01) (27, -1.41239088314568297239e-02) (28, -9.89648696478272471566e-02) (29, -3.08381923414818737150e-01) (30, -1.79052975086514909453e-01) (31, -1.79745569843473701477e-01) (32, -2.16312856570707645609e-01) (33, 1.06365724150803073189e-01) (34, 8.60566530936507090299e-02) (35, 6.32244522049409951592e-02) (36, -4.07379110833269275638e-01) (37, -1.30348895070742459845e-01) (38, -6.05416862364386090811e-02) (39, -2.29319359667445848983e-01) (40, -3.07838035749216365478e-01) (41, -2.32698799336936767990e-01) (42, -1.79273079369345222922e-01) (43, 1.27657283575840857504e-01) (44, -2.42032268799181382590e-01) (45, -1.02183279763563131248e-01) (46, -1.33381462743620837763e-01) (47, -2.62682030255315779321e-01) (48, -1.67213465665025373674e+00) (0, 4.03676566618615811910e-02) (1, -1.47343183534216992658e-01) (2, -7.49535178430498216784e-02) (3, 1.77902104286682444419e-03) (4, -1.18554879491469533637e-01) (5, -2.59638854403213215072e-01) (6, -1.39400992886091201761e-01) (7, -1.26044047964794181382e-01) (8, 4.13361257754893338112e-02) (9, -4.01337506763470130977e-01) (10, -9.51276098305664646881e-02) (11, -1.52774219663109639411e-01) (12, -1.81300168260295435640e-01) (13, -1.31713109822656271319e-01) (14, 9.76645239614053056743e-02) (15, -1.99327427252223854381e-01) (16, -2.36812451864754580644e-01) (17, -4.95818949697383493103e-01) (18, -1.56383013279716542865e-01) (19, -3.13674946949999644552e-01) (20, -2.39763397319778553962e-01) (21, -1.95209704058979693908e-01) (22, -2.13274356324614250413e-01) (23, 5.27372513501100786959e-02) (24, -3.17139801211465843789e-01) (25, -4.38879822046035206196e-01) (26, -3.87549063960152706532e-01) (27, -3.05176381601697299661e-01) (28, -2.60210583200134404347e-01) (29, -3.41369372961443151571e-01) (30, -1.99408444216996744158e-01) (31, 5.47976770677824909228e-02) (32, -1.88217524818307557766e-01) (33, -3.82686852764838825181e-01) (34, -3.13379824332806700138e-01) (35, -4.54152979653999533394e-01) (36, -3.86561259984276095469e-01) (37, -2.00649379442766839787e-01) (38, -1.58435571764326849076e-01) (39, -6.87662964524173858649e-02) (40, -7.62740932974514951326e-02) (41, -2.96697716753337614737e-01) (42, -1.00657203459833782810e-01) (43, -4.52743478000353138935e-01) (44, -2.95590374365974406512e-01) (45, -2.09713733752544290168e-01) (46, -1.08208743575167257167e-01) (47, 6.99386815339481660025e-02) (48, -1.40466375453254643801e+00) (0, 1.97541237787349655691e-03) (1, -2.13657482620614846969e-01) (2, -2.69355773237106854712e-01) (3, -1.64138799339654861686e-01) (4, -4.02507534502005492882e-01) (5, -3.10847123421510662666e-01) (6, -2.20453058083865560679e-01) (7, -1.25425480230223845846e-01) (8, 1.79793693568324447485e-01) (9, -4.71100914962996553115e-01) (10, -3.55064512055897840703e-01) (11, -3.81823290636442602697e-01) (12, -1.77901127856857022014e-01) (13, -1.90289126646061568238e-01) (14, 6.39120719414165705530e-02) (15, -1.01322164635333916705e-01) (16, -4.33759598347174812893e-01) (17, -4.73930539967164388138e-01) (18, -4.00743286923441355274e-01) (19, -3.70389121504215823588e-01) (20, -3.36562717623041129933e-01) (21, -3.21223039911928631707e-01) (22, -3.67160656057958612042e-01) (23, -3.85687297858860800304e-01) (24, -3.46333599913016820793e-01) (25, -5.81792369803722064781e-01) (26, -6.45691717344132665168e-01) (27, -5.54262049978624493640e-01) (28, -3.39066557613621144540e-01) (29, -5.82364554731557682032e-01) (30, -4.79469388505997407002e-01) (31, -5.81105571847498558746e-01) (32, -2.85561794632203158617e-01) (33, -7.38113139712456622910e-01) (34, -6.41787692890958827441e-01) (35, -9.51956829998096054624e-01) (36, -4.76914381628309791417e-01) (37, -4.35730060128857066282e-01) (38, -5.40210462652923384397e-01) (39, -4.99430063668876364491e-02) (40, -8.01815673359779074181e-02) (41, -4.65851529523411467260e-01) (42, -1.13001008624663223934e-01) (43, -1.11417701732860319197e+00) (44, -6.39075834440783308033e-01) (45, -4.61308203470230215881e-01) (46, -5.85923645829393435758e-03) (47, 4.77208544597603825932e-02) (48, -5.87263222273258889139e-01) (0, -9.75090306854031890760e-02) (1, -1.95632507914016623429e-01) (2, -1.95543031184326671079e-01) (3, -6.22239026702511785483e-02) (4, -7.43678238324203433329e-01) (5, -8.50294407160179788185e-02) (6, -2.38011484324903654919e-01) (7, -8.35758410417533625925e-02) (8, 1.63709249636671355654e-01) (9, -3.01491797712109654839e-01) (10, -3.00653913463780286808e-01) (11, -4.42885794569460755632e-01) (12, -4.15015374403827519423e-01) (13, -1.47538102672719023678e-01) (14, -1.60427005704009612019e-01) (15, 3.29316644016965143216e-01) (16, -2.18390135988268500877e-02) (17, -2.31067661209280600376e-01) (18, -2.56333516295577990007e-01) (19, -6.57038976973293165074e-01) (20, -6.98596941164730589335e-01) (21, -7.62800057060816105725e-01) (22, -4.34898850758129340566e-01) (23, -8.43113207032482159242e-01) (24, 8.94072988580231348132e-02) (25, -2.61109920307918019766e-01) (26, -2.77079438775989617127e-01) (27, -6.53290883493859109166e-01) (28, -7.13595035788878284677e-01) (29, -7.07300361211834593966e-01) (30, -8.42110914764139351085e-01) (31, -1.18435621435287297132e+00) (32, 2.86438414920262951480e-01) (33, -4.89991497409992926571e-01) (34, -5.89258831995857046415e-01) (35, -9.23052203984139785220e-01) (36, -9.58542314912556370210e-01) (37, -5.98060800798232539144e-01) (38, -7.15076193896704848108e-01) (39, 1.03892147832887783709e-02) (40, 5.87593428655862407006e-02) (41, -1.92896784561285672410e-01) (42, -3.89835746292170381988e-01) (43, -9.89539701168506979911e-01) (44, -1.09883217465606097818e+00) (45, -4.95820919287473904635e-01) (46, -3.27566705484760439804e-02) (47, 5.17028954087439679421e-02) (48, -3.88656814836539965530e-01) (0, 2.96853711940978336192e-02) (1, -1.32806444555730845947e-01) (2, -1.83462421804484854260e-01) (3, -1.33360202620553175423e-01) (4, -2.03079279219020775171e-01) (5, -1.66361669341038020953e-01) (6, -2.03670187017772591487e-01) (7, 7.50754012007317506061e-02) (8, -1.39627836199266469608e-01) (9, -2.51131136367452545421e-01) (10, -5.61705076787572758074e-03) (11, -1.59799694487182925018e-01) (12, -5.22690784066776270578e-01) (13, -2.22903391006458562185e-01) (14, 5.83210561956720857646e-02) (15, -1.13936860836596279278e-02) (16, -3.49058356765646005115e-01) (17, -4.09633071241139956609e-01) (18, -1.12064508705311857706e-01) (19, -3.18752463271624320029e-01) (20, -3.41703903928332219930e-01) (21, -1.03207452104490643441e-01) (22, -5.59733886555981857702e-02) (23, 1.55320767768845263701e-01) (24, -3.13820089277952851692e-01) (25, -2.19755668826405403671e-01) (26, -2.05104073595069685831e-01) (27, -2.40342532196040764569e-01) (28, -2.73667691316452132977e-01) (29, -4.70465614396936571140e-02) (30, 2.35167149469716549315e-02) (31, 3.53768081695869152092e-01) (32, -5.92691673576587960137e-02) (33, -1.69735163380868192551e-01) (34, -1.05241582114732765141e-01) (35, -7.51443089918208823041e-02) (36, -1.77770708994587828267e-01) (37, 1.90521665645218725438e-02) (38, 2.45624536633672146957e-01) (39, 4.72525644719698559304e-02) (40, 3.82090011520889102914e-02) (41, -6.42865658945846185635e-02) (42, 5.23986429411774159992e-02) (43, -2.11324586267763320224e-01) (44, -1.27677368971744059634e-01) (45, 2.38488870576898624731e-02) (46, 1.36736914657333737122e-02) (47, -1.10433426061310416277e-01) (48, -1.67038705596922221197e+00) (0, -1.73144256757236519872e-01) (1, -5.04301026814138048104e-02) (2, -1.06090509231192550721e-01) (3, -1.34740036283384018168e-01) (4, -1.68881719202566754623e-01) (5, -9.33893990098067089400e-02) (6, -9.27381531685204790749e-02) (7, 3.01779331572062520239e-02) (8, -6.37756350357002871343e-02) (9, -1.92861392511180063103e-01) (10, -1.89584982868017976054e-01) (11, -2.04145516252071973495e-01) (12, -2.80762926569145698785e-01) (13, -1.98388657535540857690e-01) (14, -1.48450482551202606052e-01) (15, 9.49045334779744509390e-02) (16, -1.43037244413947911559e-01) (17, -1.79502977958962584015e-01) (18, -1.64676815097637679886e-01) (19, -1.94861628216671051161e-01) (20, -2.57942618812704471676e-01) (21, -2.93914358719681467758e-01) (22, -1.79321643011949027890e-01) (23, -1.87626954486405206346e-01) (24, -5.69381750957573748440e-02) (25, -2.31148569688417848678e-01) (26, -2.17125920290511309485e-01) (27, -2.61508000711944577077e-01) (28, -2.77189508813953711108e-01) (29, -2.75014520449920474299e-01) (30, -2.19565438388737488307e-01) (31, -1.18951165663361724256e-01) (32, 2.58572939590535517962e-02) (33, -2.27532287557588031035e-01) (34, -2.11410275351097715069e-01) (35, -2.82391012398626795044e-01) (36, -2.02259543994531026945e-01) (37, -2.23393007201982851662e-01) (38, -2.69146101996151840274e-02) (39, -8.64055849353798435808e-03) (40, 8.16875496084809443742e-02) (41, -5.89149755435801822379e-02) (42, -1.14758801433273854853e-01) (43, -3.69179455146072088567e-01) (44, -2.67637967758430017629e-01) (45, -2.82158877959699294635e-01) (46, -1.53795409867002297322e-01) (47, -1.30160884165724161088e-01) (48, -1.40932671433010159312e+00) (0, 2.34398824104116235145e-02) (1, -6.56387145599070381818e-02) (2, -1.87125707038505367796e-01) (3, -1.87669933680312595037e-01) (4, -1.77985266623282151199e-01) (5, -1.97000301505026897964e-01) (6, -4.55752141326014742484e-02) (7, -5.60970431223841575763e-02) (8, -1.07619811979238838573e-01) (9, -2.91441955117956452703e-01) (10, -9.31137342304759890732e-02) (11, -1.84652066312557899819e-01) (12, -2.22574829862131534641e-01) (13, -1.96425019012343854419e-01) (14, -1.33525309897392086000e-01) (15, -1.24500910337101769465e-02) (16, -1.49113469272112442177e-01) (17, -1.38893193158660138709e-01) (18, -5.30328615345442774820e-02) (19, -2.78159155583663830758e-01) (20, -1.61857526459150302678e-01) (21, -2.08222284811294955365e-01) (22, -2.14025780310652974370e-01) (23, -8.98326717889885995039e-02) (24, -1.93692078349006396865e-01) (25, -1.42171554818443401924e-01) (26, -2.86989257288464694184e-01) (27, -2.39821186500749183867e-01) (28, -3.10346402517260977483e-01) (29, -2.78924580367139685055e-01) (30, -9.85231126355068931311e-02) (31, -1.80926910585080084892e-02) (32, -1.03572181003540361721e-01) (33, -2.02788392433280950655e-01) (34, -1.76580389738300091995e-01) (35, -3.30385031603781242904e-01) (36, -2.38294304812298296525e-01) (37, -1.19615034051754332012e-01) (38, -3.61989960286593151495e-02) (39, -6.10319136711836296438e-02) (40, 7.14612871770022430127e-05) (41, -1.87408790233357686050e-01) (42, -5.18400954713664277596e-02) (43, -3.70372043864956923542e-01) (44, -3.62077167524098464391e-01) (45, -2.09081154200617735928e-01) (46, -6.87657285333055923182e-02) (47, -2.49637646233130117146e-02) (48, -1.43227256041277706267e+00) (0, 6.50147887984805911143e-02) (1, -1.95382697831420343304e-02) (2, -1.79336051681953587145e-02) (3, -4.85768795052865867690e-02) (4, -3.61520508034321119695e-01) (5, -1.10210648498996408029e-01) (6, -1.43082590079664145888e-01) (7, -1.36403442209691166953e-01) (8, 1.24356967749000721368e-01) (9, 1.11371973635974591543e-02) (10, 2.02967093953205710011e-03) (11, -1.57761689806954652493e-01) (12, -7.81531069186584825825e-02) (13, -1.29855034476542063882e-01) (14, -1.20883699507574757237e-01) (15, -3.62208315233956856805e-01) (16, 2.50888185461640766949e-01) (17, -1.01234767961096552846e-01) (18, -1.26033266597541215859e-01) (19, -2.00620602327633928974e-01) (20, -2.85280015626288963038e-01) (21, -6.10030045016830418936e-02) (22, 1.31624744910711494184e-01) (23, -5.01457455425647485869e-02) (24, 3.09234053453553370261e-01) (25, 1.41634730816049020374e-01) (26, 8.61312982117248410185e-02) (27, -1.34513089216477445959e-02) (28, -1.04351818813134614161e-01) (29, -2.65105113821299975818e-01) (30, 1.85189277557453110812e-02) (31, 5.43856074440534770220e-02) (32, -3.59356746590442255318e-01) (33, 1.21831914523714779364e-01) (34, 2.09821348297016159468e-02) (35, -1.96382873453918388451e-01) (36, -3.58279798144501060442e-01) (37, 6.05606791421899257055e-02) (38, -1.12725422878176412267e-01) (39, -1.03795953894769643622e-01) (40, -3.13680634168204131029e-01) (41, -9.12316059391360401065e-02) (42, 5.89528616801634000599e-02) (43, 3.44016556975423118403e-02) (44, -1.72030790140750594608e-01) (45, -1.28863548447636783179e-01) (46, -1.26952687856047075066e-01) (47, 3.10682935351608187358e-02) (48, -1.66546731791493685115e+00) (0, -2.64807833219280648607e-02) (1, 8.32551158938100721585e-02) (2, 1.36050512934731193671e-01) (3, -1.40624563327652829514e-01) (4, 2.23589793676587170190e-02) (5, 1.77495674754406779217e-01) (6, -1.03584458393291056755e-01) (7, 5.59378762037402721408e-02) (8, -3.39942170067346061124e-01) (9, 4.28396063794907397404e-02) (10, 1.41099033947178431614e-01) (11, -5.72510260937779888457e-02) (12, -4.61196544308488554087e-01) (13, 1.34703934421299478807e-02) (14, -1.36933842903180419404e-01) (15, -2.62327711813531927465e-01) (16, 1.48865514565763246146e-01) (17, 2.20018002724446409823e-01) (18, 2.99685458848678698551e-01) (19, -1.14931478326652947858e-02) (20, -1.23740647178908216852e-01) (21, -1.38858710793495765401e-01) (22, 3.81254423092144750437e-03) (23, 5.23323241199352584552e-01) (24, 2.09767611775059981127e-01) (25, 3.37715479652949956968e-01) (26, 2.06857989384638812913e-01) (27, -4.86928790772318056956e-02) (28, -3.58328751448760696174e-01) (29, 3.44044171591501135588e-01) (30, 7.31607842528763763212e-01) (31, 6.70306550482672180991e-01) (32, 1.86301026688766524497e-01) (33, 4.70078254318992527772e-01) (34, 5.41854076315400501329e-01) (35, 3.31609279762434649985e-01) (36, 3.13577772157205281189e-02) (37, 4.01140370903645793188e-01) (38, 4.19479377137104314510e-01) (39, 2.44477423831580470415e-01) (40, 7.16423190792751535955e-03) (41, 3.45181568227967472406e-01) (42, 3.14175545049367663242e-02) (43, 5.48256193108491607369e-01) (44, 6.60380550949837413777e-02) (45, 7.05703371704708565249e-02) (46, -2.57778068364308528618e-03) (47, 1.66557778396961675416e-01) (48, -1.70612969923376245340e+00) (0, -4.85537784987646492407e-01) (1, -5.24958149890356051692e-01) (2, -5.31687864732243054000e-01) (3, 2.92117943323009054968e-01) (4, -3.61434021178098252580e-01) (5, -1.66918477049907351684e-02) (6, -5.41778158424607719779e-02) (7, 5.62418709645942205277e-01) (8, -9.52769139941028520013e-01) (9, -4.70460213528250292825e-01) (10, -1.22140761136551950772e-01) (11, -1.48568218895199499752e-01) (12, 1.11352750296854166590e-01) (13, 5.18439473388016436317e-01) (14, 5.27330880336101606720e-02) (15, 1.79558120523258202272e-01) (16, -6.83646863541569560496e-01) (17, -3.46411440557346961278e-01) (18, 3.30734853002439932457e-01) (19, 3.12543401063638925930e-01) (20, 4.83410363518893548829e-01) (21, 1.10032927322726203911e+00) (22, 1.02671779142298968956e+00) (23, -3.23502458959053607046e-01) (24, -4.86797454277142882528e-01) (25, 1.84332603529887950611e-01) (26, 6.47713093570668058119e-02) (27, -5.72156240695348775049e-02) (28, 4.75566841480045410240e-01) (29, 9.54858143804799719412e-01) (30, 7.60603600769210963506e-01) (31, -5.91933375916087078927e-01) (32, 1.60353876491093005896e-01) (33, -3.23287093274277015365e-01) (34, 4.02870247205381004640e-01) (35, 8.94058100780290909704e-01) (36, 7.59726965798040110300e-01) (37, 7.31303689353409169804e-01) (38, -3.36512536727094913047e-01) (39, -7.76519158768779527158e-01) (40, 3.63367097886964252051e-01) (41, 1.43339940544134458733e-01) (42, 1.08297571793914948479e+00) (43, 3.27277142295493761459e-01) (44, 1.18709833172818218783e-01) (45, -1.61228053826132228243e-01) (46, -1.06958219448384617145e+00) (47, -1.11437972594915279956e+00) (48, -2.76381995587652307123e+00) (0, -1.38955166707942345122e-02) (1, 8.70606834882789309971e-02) (2, 7.97181223690709463148e-03) (3, 2.23337587490891886777e-03) (4, -7.01247015499658343796e-02) (5, 1.07577958216857390988e-02) (6, -1.77314109298471633824e-01) (7, -9.79957946216331171607e-02) (8, -7.25922623248878712277e-02) (9, 1.49819952178355919603e-01) (10, 1.95433276100631346528e-02) (11, -8.67450104414859146651e-02) (12, -2.08895867118720490740e-01) (13, -1.62822360471849003627e-01) (14, -1.96955477321008494418e-02) (15, -2.70886282671017220025e-01) (16, 2.75531916276653354725e-01) (17, 1.81803372713259692173e-01) (18, 6.40353522242389922026e-02) (19, -1.09145899865257939299e-01) (20, -2.31354041884856059808e-01) (21, -1.81447186513890440507e-02) (22, -1.33620385931468521612e-01) (23, 2.36627190218385990983e-01) (24, 1.86271909498558568830e-01) (25, 1.21959960822608556863e-01) (26, 9.30613003291967250119e-02) (27, 1.03715972587166541108e-01) (28, -1.25555205937635194768e-01) (29, 1.51758541679439251659e-01) (30, 2.67644161288640158869e-01) (31, 2.11129402384023640016e-01) (32, 2.13853321679076877060e-02) (33, 1.65203862334557138869e-01) (34, 3.37857134678797632610e-01) (35, 8.39896450905289020106e-03) (36, -8.19239877207766642453e-02) (37, 3.09615090910125706491e-02) (38, 1.42556715574291472531e-02) (39, 2.88856191172690811297e-02) (40, -2.10370326743497065847e-01) (41, 6.94254156504346964240e-02) (42, 4.11747319640681855302e-02) (43, 1.07024626459275143397e-01) (44, 2.10012491073661052010e-02) (45, 1.74653486188486001263e-01) (46, 4.50442336173642043917e-02) (47, 3.32100052276651375172e-02) (48, -1.70249955186943591201e+00) (0, -1.17912516891094214244e-02) (1, -2.37255790858044920966e-02) (2, -4.32589220164770332788e-02) (3, -6.29926821199774528148e-02) (4, -1.13029298258649643638e-01) (5, -1.03279270520140284417e-01) (6, -1.14207958344658688787e-01) (7, -7.82011197634459448436e-02) (8, -1.35245793617326998115e-01) (9, -1.84203026076418197032e-01) (10, -6.13554152892258272689e-02) (11, -9.69846744462869725378e-02) (12, -3.24712415166277412748e-01) (13, -1.95186057511220562022e-01) (14, -6.01688277409239344329e-02) (15, -1.15664488915069946229e-01) (16, -1.09092797721960510504e-01) (17, -1.42687930056190015460e-01) (18, -6.19994647470981305459e-02) (19, -6.97419072667894851536e-02) (20, -2.11412686797096155411e-01) (21, -1.18503887561543549967e-01) (22, -1.17694091889076465907e-01) (23, 1.67770503301594459122e-01) (24, -1.51907815191614392614e-01) (25, -7.52967231246666757194e-02) (26, -1.86579950213685258342e-01) (27, -2.18288611942987376136e-01) (28, -3.42381064810720503466e-01) (29, -1.51538122966003913072e-01) (30, 9.41306218741806283168e-02) (31, 1.45841355700792651984e-01) (32, 5.87396232471525223291e-04) (33, -1.18836282083277511301e-01) (34, 6.95179996633484564850e-02) (35, -7.29961672035866759867e-02) (36, -1.05028484001183336494e-01) (37, -2.36541183842672690651e-02) (38, 4.99308522859158998575e-02) (39, 6.10638919294959059414e-02) (40, 2.01598107749751571938e-02) (41, -5.53649817843071614942e-02) (42, -9.87129831953335590278e-02) (43, -1.31238930609687776130e-01) (44, -1.01443552161297981251e-01) (45, 3.68632173528187084832e-02) (46, 3.05389558466980653995e-03) (47, 9.75199211103168622783e-02) (48, -1.62703671888029388626e+00) (0, 3.18803378130131792600e-02) (1, 2.05809692568410286528e-02) (2, 3.82895186908497678346e-02) (3, -2.16510129415244473305e-01) (4, -1.14235098341635324393e-01) (5, -9.09171782901657121734e-02) (6, -7.60683628197224431799e-02) (7, -1.15885643511546551632e-01) (8, 1.13354990386571263805e-01) (9, 1.48406090603507345715e-01) (10, 1.94785851869745757492e-01) (11, -9.22850766623873886019e-02) (12, -3.11348326881301151747e-01) (13, -1.88883863105723082132e-01) (14, -1.86505188266115701223e-01) (15, -3.38473885645472982731e-01) (16, 1.00333710491190275516e-01) (17, 1.43481050757566314102e-01) (18, -8.24049659924516592069e-02) (19, 1.65757809815415019239e-01) (20, -1.68961523516273387502e-01) (21, -9.62046856435573027877e-02) (22, -1.14347709383617306828e-02) (23, 1.47938072781030965919e-01) (24, 1.71858254504361568360e-01) (25, 4.56068729132086195244e-02) (26, 5.87248001774260813823e-02) (27, 5.37485720309851394694e-02) (28, 1.52137264408545497263e-01) (29, -1.66509370073161973302e-02) (30, 1.64063458000663936476e-01) (31, 9.69728569140175938879e-02) (32, -2.62179013980877562151e-01) (33, 1.13033684148050900253e-01) (34, 9.09797352452123703204e-02) (35, -1.83539429635141276842e-02) (36, -2.63001177524401885677e-01) (37, 1.15017449462336940336e-01) (38, -1.43681171100697863130e-02) (39, 7.94947947988665490002e-04) (40, -1.53061963636987846682e-01) (41, 1.03288741995079067643e-02) (42, -1.08476729702706484182e-01) (43, 4.62293640791210797003e-02) (44, 6.07093741682488349798e-02) (45, 1.09767907458048027958e-01) (46, -9.93548905492236122949e-02) (47, 3.73439713122811975388e-02) (48, -1.69375587429598750688e+00) (0, 3.49924039839902001336e-01) (1, 4.89648135976086806842e-01) (2, 6.88925162747788255579e-01) (3, 9.94851853788581985683e-01) (4, -9.01972346465045426989e-01) (5, -5.22784997215668068016e-01) (6, -8.83136226548437153205e-01) (7, 2.32135902742347688399e-01) (8, 8.05284668654121182918e-01) (9, 5.69201423819786889169e-01) (10, 4.86546781658430349538e-01) (11, 3.37063797877638127165e-01) (12, 4.13796244936061097253e-01) (13, 9.28135098735443780926e-02) (14, -7.05988011753856725683e-01) (15, -6.68131844891622139748e-01) (16, 2.51567657875254258038e-01) (17, 6.79236889046286762550e-01) (18, 3.45110309097106882081e-01) (19, 6.28852638346840908667e-01) (20, 1.27240620781258390037e-01) (21, 5.15331302245512046234e-01) (22, 5.50800777311102440770e-01) (23, 2.74177472530335170076e-02) (24, -5.64720305027502811335e-01) (25, 4.63306768686819817060e-02) (26, 6.87816579297886088185e-01) (27, 5.15761524214094269070e-01) (28, 9.69094867159063899642e-01) (29, 4.76508287850659184581e-01) (30, 2.47875963594250930955e-01) (31, 3.20401363228531355087e-01) (32, -4.93788195980018218556e-01) (33, -4.79013398809128299050e-01) (34, -4.26625193706652194869e-01) (35, 1.52598284172300147077e-01) (36, -3.02706928426802399090e-02) (37, 4.09779032672100362866e-01) (38, 1.07641284863401653915e+00) (39, 1.48820393575311959999e-01) (40, -6.15777200095117271950e-01) (41, -1.78551380796891749625e-02) 